{"learner":{"attributes":{"scikit_learn":"{\"_estimator_type\": \"regressor\"}"},"feature_names":[],"feature_types":[],"gradient_booster":{"model":{"gbtree_model_param":{"num_parallel_tree":"1","num_trees":"100"},"iteration_indptr":[0,1,2,3,4,5,6,7,8,9,10,11,12,13,14,15,16,17,18,19,20,21,22,23,24,25,26,27,28,29,30,31,32,33,34,35,36,37,38,39,40,41,42,43,44,45,46,47,48,49,50,51,52,53,54,55,56,57,58,59,60,61,62,63,64,65,66,67,68,69,70,71,72,73,74,75,76,77,78,79,80,81,82,83,84,85,86,87,88,89,90,91,92,93,94,95,96,97,98,99,100],"tree_info":[0,0,0,0,0,0,0,0,0,0,0,0,0,0,0,0,0,0,0,0,0,0,0,0,0,0,0,0,0,0,0,0,0,0,0,0,0,0,0,0,0,0,0,0,0,0,0,0,0,0,0,0,0,0,0,0,0,0,0,0,0,0,0,0,0,0,0,0,0,0,0,0,0,0,0,0,0,0,0,0,0,0,0,0,0,0,0,0,0,0,0,0,0,0,0,0,0,0,0,0],"trees":[{"base_weights":[1.0404054E-8,5.1624287E-2,-4.9990587E-2,5.9104E-2,-4.6987206E-2,-7.520738E-2,2.7113676E-2,1.8996065E-2,7.3577605E-2,9.042976E-2,-9.466957E-2,-1.9081285E-2,-1.10512435E-1,-6.8960376E-2,4.710049E-2,4.0443234E-2,-5.932674E-2,-2.6485791E-2,7.487249E-2,-6.949061E-2,1.2718022E-1,4.0448826E-2,-1.4471924E-1,-5.792545E-2,3.9977957E-2,-1.4358501E-1,-6.45925E-2,1.039872E-1,-1.16524376E-1,5.8180604E-2,-9.206988E-2,5.820983E-2,-6.256158E-2,-1.2062849E-1,9.068874E-2,4.0316384E-2,8.5504666E-2,5.1695714E-3,-1.7330429E-2,1.4659774E-1,6.0311663E-3,9.6365556E-2,-2.248579E-2,1.7814234E-2,-1.923256E-1,-8.260691E-2,5.168686E-2,-1.3336359E-3,1.2491475E-1,-1.5750651E-1,-3.8759712E-2,-1.14612654E-1,-2.0814434E-2,1.4586964E-1,-1.5404825E-2,-1.7125458E-1,5.8369648E-2,-1.03121206E-1,6.69717E-2,3.3369653E-2,-2.2885293E-2,-1.6181635E-2,6.69925E-3,-1.4572637E-2,6.1249095E-3,1.0170516E-3,-1.8909255E-2,-2.2071494E-2,1.2193031E-2,6.1236448E-3,-1.6210552E-2,-2.233043E-2,8.671237E-3,1.5954277E-2,5.1695714E-3,-1.1553619E-2,1.112491E-2,-1.848579E-2,9.439473E-3,-2.1869842E-2,1.1514211E-2,-2.8707574E-3,-1.3830318E-2,8.350785E-3,-2.5922699E-2,-5.2473764E-3,7.980819E-3,-1.5404825E-2,1.3508581E-2,1.3531168E-2,-1.6245006E-2,-1.1174511E-2,1.2845776E-2,-1.5739283E-2,-3.9961874E-3,-1.3747542E-2,1.0526812E-3,9.9718515E-3,3.1261843E-2,-2.0989892E-3,-2.1942178E-2,-1.5404825E-2,9.9718515E-3,7.2380104E-3,-2.3733852E-2,-4.9151503E-3,8.079387E-3,-1.848579E-2,1.21516995E-2],"categories":[],"categories_nodes":[],"categories_segments":[],"categories_sizes":[],"default_left":[0,0,0,0,0,0,0,0,0,0,0,0,0,0,0,0,0,0,0,0,0,0,0,0,0,0,0,0,0,0,0,0,0,0,0,0,0,0,0,0,0,0,0,0,0,0,0,0,0,0,0,0,0,0,0,0,0,0,0,0,0,0,0,0,0,0,0,0,0,0,0,0,0,0,0,0,0,0,0,0,0,0,0,0,0,0,0,0,0,0,0,0,0,0,0,0,0,0,0,0,0,0,0,0,0,0,0,0,0],"id":0,"left_children":[1,3,5,7,9,11,13,15,17,19,21,23,25,27,29,31,33,-1,35,37,39,41,43,45,47,49,51,53,55,57,59,61,63,65,67,69,71,-1,-1,73,-1,75,-1,77,79,81,83,85,87,89,91,93,95,97,-1,99,101,103,105,107,-1,-1,-1,-1,-1,-1,-1,-1,-1,-1,-1,-1,-1,-1,-1,-1,-1,-1,-1,-1,-1,-1,-1,-1,-1,-1,-1,-1,-1,-1,-1,-1,-1,-1,-1,-1,-1,-1,-1,-1,-1,-1,-1,-1,-1,-1,-1,-1,-1],"loss_changes":[9.631279E0,1.3569841E0,3.6884756E0,9.8952675E-1,8.603685E-1,2.829504E0,9.019084E-1,7.6502967E-1,5.6937504E-1,2.0866084E-1,6.618292E-1,1.2709569E0,1.3226156E0,6.7842937E-1,6.0366166E-1,6.569677E-1,9.121684E-1,0E0,4.558115E-1,9.702468E-2,2.751425E-2,4.2221588E-1,5.527978E-1,9.0787053E-1,7.721189E-1,7.366924E-1,8.0564535E-1,2.1699977E-1,6.226031E-1,5.1739323E-1,5.0521874E-1,6.002276E-1,5.5465007E-1,6.2877524E-1,3.0904526E-1,1.2633917E0,3.755288E-1,0E0,0E0,1.7551064E-2,0E0,8.539179E-2,0E0,2.8130206E-1,4.7116446E-1,8.155736E-1,6.350498E-1,6.224787E-1,2.2509897E-1,6.719341E-1,7.5882494E-1,5.430045E-1,7.2539467E-1,9.1956496E-2,0E0,3.5004807E-1,1.5589328E-1,4.6472955E-1,5.52907E-1,3.3024225E-1,0E0,0E0,0E0,0E0,0E0,0E0,0E0,0E0,0E0,0E0,0E0,0E0,0E0,0E0,0E0,0E0,0E0,0E0,0E0,0E0,0E0,0E0,0E0,0E0,0E0,0E0,0E0,0E0,0E0,0E0,0E0,0E0,0E0,0E0,0E0,0E0,0E0,0E0,0E0,0E0,0E0,0E0,0E0,0E0,0E0,0E0,0E0,0E0,0E0],"parents":[2147483647,0,0,1,1,2,2,3,3,4,4,5,5,6,6,7,7,8,8,9,9,10,10,11,11,12,12,13,13,14,14,15,15,16,16,18,18,19,19,20,20,21,21,22,22,23,23,24,24,25,25,26,26,27,27,28,28,29,29,30,30,31,31,32,32,33,33,34,34,35,35,36,36,39,39,41,41,43,43,44,44,45,45,46,46,47,47,48,48,49,49,50,50,51,51,52,52,53,53,55,55,56,56,57,57,58,58,59,59],"right_children":[2,4,6,8,10,12,14,16,18,20,22,24,26,28,30,32,34,-1,36,38,40,42,44,46,48,50,52,54,56,58,60,62,64,66,68,70,72,-1,-1,74,-1,76,-1,78,80,82,84,86,88,90,92,94,96,98,-1,100,102,104,106,108,-1,-1,-1,-1,-1,-1,-1,-1,-1,-1,-1,-1,-1,-1,-1,-1,-1,-1,-1,-1,-1,-1,-1,-1,-1,-1,-1,-1,-1,-1,-1,-1,-1,-1,-1,-1,-1,-1,-1,-1,-1,-1,-1,-1,-1,-1,-1,-1,-1],"split_conditions":[9.582543E-2,1.19260535E-1,4.177578E-1,2.7538627E-2,1.9725622E-1,-1.4566775E-2,2.6580063E-1,-1.0263097E-2,-6.254886E-1,-6.238511E-1,-1.3416049E-1,5.2053984E-2,-2.1950096E-1,3.501823E-1,-1.1910256E-1,-1.0427101E-1,-1.0090594E-1,-2.6485791E-2,-4.9670097E-1,-9.2200495E-2,1.8800868E-1,5.1906243E-2,-5.474409E-1,-1.9680154E-1,6.221755E-1,5.078625E-1,4.2957366E-3,3.8914183E-1,5.4027066E-3,-3.6309403E-1,2.6455045E-1,-1.4737771E-1,1.5473291E-1,1.7096254E-1,-9.601938E-2,1.10319205E-1,-1.780819E-2,5.1695714E-3,-1.7330429E-2,1.2830812E-1,6.0311663E-3,-9.5112365E-1,-2.248579E-2,7.6813556E-2,9.8259285E-2,-3.6575E-1,-9.8436594E-2,-3.5048494E-1,-2.5253108E-1,-2.7449572E-1,-2.3003943E-1,3.174339E-1,-4.1308814E-1,1.6999264E-1,-1.5404825E-2,-3.242536E-2,-2.764534E-1,-3.579642E-1,-9.393586E-1,6.0007367E-2,-2.2885293E-2,-1.6181635E-2,6.69925E-3,-1.4572637E-2,6.1249095E-3,1.0170516E-3,-1.8909255E-2,-2.2071494E-2,1.2193031E-2,6.1236448E-3,-1.6210552E-2,-2.233043E-2,8.671237E-3,1.5954277E-2,5.1695714E-3,-1.1553619E-2,1.112491E-2,-1.848579E-2,9.439473E-3,-2.1869842E-2,1.1514211E-2,-2.8707574E-3,-1.3830318E-2,8.350785E-3,-2.5922699E-2,-5.2473764E-3,7.980819E-3,-1.5404825E-2,1.3508581E-2,1.3531168E-2,-1.6245006E-2,-1.1174511E-2,1.2845776E-2,-1.5739283E-2,-3.9961874E-3,-1.3747542E-2,1.0526812E-3,9.9718515E-3,3.1261843E-2,-2.0989892E-3,-2.1942178E-2,-1.5404825E-2,9.9718515E-3,7.2380104E-3,-2.3733852E-2,-4.9151503E-3,8.079387E-3,-1.848579E-2,1.21516995E-2],"split_indices":[558,35,325,701,452,190,585,329,554,365,261,224,645,582,178,742,629,0,292,5,401,348,357,332,603,367,717,7,224,351,30,233,192,487,238,190,102,0,0,730,0,10,0,337,359,454,55,590,31,264,518,534,114,139,0,640,88,0,10,391,0,0,0,0,0,0,0,0,0,0,0,0,0,0,0,0,0,0,0,0,0,0,0,0,0,0,0,0,0,0,0,0,0,0,0,0,0,0,0,0,0,0,0,0,0,0,0,0,0],"split_type":[0,0,0,0,0,0,0,0,0,0,0,0,0,0,0,0,0,0,0,0,0,0,0,0,0,0,0,0,0,0,0,0,0,0,0,0,0,0,0,0,0,0,0,0,0,0,0,0,0,0,0,0,0,0,0,0,0,0,0,0,0,0,0,0,0,0,0,0,0,0,0,0,0,0,0,0,0,0,0,0,0,0,0,0,0,0,0,0,0,0,0,0,0,0,0,0,0,0,0,0,0,0,0,0,0,0,0,0,0],"sum_hessian":[3.73E3,1.835E3,1.895E3,1.706E3,1.29E2,1.428E3,4.67E2,4.53E2,1.253E3,3.3E1,9.6E1,5.52E2,8.76E2,8E1,3.87E2,3.56E2,9.7E1,4E0,1.249E3,6E0,2.7E1,2.6E1,7E1,3.33E2,2.19E2,5.08E2,3.68E2,1.7E1,6.3E1,3.59E2,2.8E1,3.04E2,5.2E1,6.9E1,2.8E1,2.95E2,9.54E2,3E0,3E0,2E1,7E0,2.2E1,4E0,1.6E1,5.4E1,2.72E2,6.1E1,1.48E2,7.1E1,4.48E2,6E1,1.71E2,1.97E2,1.5E1,2E0,4.8E1,1.5E1,1.8E1,3.41E2,1.5E1,1.3E1,1.1E1,2.93E2,3.1E1,2.1E1,2.4E1,4.5E1,2E0,2.6E1,2.68E2,2.7E1,3E0,9.51E2,1.7E1,3E0,1E0,2.1E1,4E0,1.2E1,5E1,4E0,1.39E2,1.33E2,5.6E1,5E0,9.1E1,5.7E1,2E0,6.9E1,7E0,4.41E2,4.2E1,1.8E1,1.08E2,6.3E1,4.1E1,1.56E2,1.3E1,2E0,1.2E1,3.6E1,2E0,1.3E1,8E0,1E1,3.6E1,3.05E2,4E0,1.1E1],"tree_param":{"num_deleted":"0","num_feature":"769","num_nodes":"109","size_leaf_vector":"1"}},{"base_weights":[-6.333701E-5,4.639473E-2,-4.505118E-2,5.3137407E-2,-4.2498656E-2,-6.773347E-2,2.4303602E-2,1.6995788E-2,6.61798E-2,8.182778E-2,-8.5638866E-2,-2.8895346E-2,-1.102308E-1,-6.2109347E-2,4.2280782E-2,-6.373395E-2,3.6035165E-2,-2.4366928E-2,6.736625E-2,-6.427881E-2,1.1543202E-1,1.4484679E-2,-1.4239384E-1,-8.0561325E-2,7.6544224E-3,5.5308603E-2,-1.1661405E-1,9.5023416E-2,-1.0533248E-1,5.6974776E-2,-4.5851026E-2,-1.3412715E-1,4.4682432E-2,-1.320464E-1,4.607447E-2,2.2535015E-2,7.430628E-2,4.7818534E-3,-1.6030645E-2,1.3294387E-1,5.5034403E-3,7.234865E-2,-1.6714597E-1,-1.9193955E-1,-3.65218E-2,-2.9545285E-2,-1.263884E-1,-2.8725736E-2,5.5041883E-2,-1.1693045E-1,1.5337224E-1,-1.3979383E-1,-6.660856E-2,1.3385978E-1,-1.4377837E-2,-1.5461977E-1,5.2193116E-2,-8.420377E-2,6.626479E-2,1.5523631E-2,-2.002579E-1,-2.7921593E-2,-1.3585207E-3,-2.1545041E-2,8.519798E-3,-2.1332836E-2,1.0671321E-2,5.7336944E-3,-7.978986E-3,-1.3834797E-2,5.011805E-3,7.6839025E-3,-6.402415E-3,1.4447483E-2,4.7818534E-3,1.06270155E-2,-1.5774792E-2,-2.3637133E-2,5.0095203E-3,4.6039023E-3,-2.1820148E-2,-1.7442096E-2,8.143766E-3,1.0232652E-2,-5.8487854E-3,-1.652029E-2,-2.4073226E-3,-1.2726952E-2,6.7776087E-4,-2.2034233E-2,6.8284594E-3,-1.887342E-2,1.1352303E-2,1.7638473E-2,-1.0741369E-2,-1.46357445E-2,4.6571405E-3,-8.927242E-3,9.030839E-3,9.045893E-3,2.917772E-2,-1.8399649E-3,-2.0329926E-2,-1.4377837E-2,9.045893E-3,-2.0025006E-2,3.9497404E-3,9.436122E-3,2.5457777E-3,8.681114E-3,-1.4469648E-2,3.0424118E-3,-2.1766497E-2],"categories":[],"categories_nodes":[],"categories_segments":[],"categories_sizes":[],"default_left":[0,0,0,0,0,0,0,0,0,0,0,0,0,0,0,0,0,0,0,0,0,0,0,0,0,0,0,0,0,0,0,0,0,0,0,0,0,0,0,0,0,0,0,0,0,0,0,0,0,0,0,0,0,0,0,0,0,0,0,0,0,0,0,0,0,0,0,0,0,0,0,0,0,0,0,0,0,0,0,0,0,0,0,0,0,0,0,0,0,0,0,0,0,0,0,0,0,0,0,0,0,0,0,0,0,0,0,0,0,0,0,0,0],"id":1,"left_children":[1,3,5,7,9,11,13,15,17,19,21,23,25,27,29,31,33,-1,35,37,39,41,43,45,47,49,51,53,55,57,59,61,63,65,67,69,71,-1,-1,73,-1,75,77,79,81,83,85,87,89,91,93,95,97,99,-1,101,103,105,107,109,111,-1,-1,-1,-1,-1,-1,-1,-1,-1,-1,-1,-1,-1,-1,-1,-1,-1,-1,-1,-1,-1,-1,-1,-1,-1,-1,-1,-1,-1,-1,-1,-1,-1,-1,-1,-1,-1,-1,-1,-1,-1,-1,-1,-1,-1,-1,-1,-1,-1,-1,-1,-1],"loss_changes":[7.8000607E0,1.1027181E0,2.9842908E0,8.035097E-1,7.0425856E-1,2.3554034E0,7.296457E-1,7.001147E-1,4.7741175E-1,1.7435303E-1,5.5326587E-1,1.4131246E0,7.2710514E-1,5.601424E-1,5.0507575E-1,6.6995764E-1,6.270553E-1,0E0,3.872385E-1,8.301674E-2,2.2298366E-2,3.904481E-1,3.1821144E-1,7.2101974E-1,7.5840104E-1,4.57084E-1,7.522278E-1,1.8618165E-1,5.049666E-1,4.4232607E-1,5.338022E-1,9.23139E-1,3.8723573E-1,4.303088E-1,4.9787992E-1,7.56895E-1,3.8400316E-1,0E0,0E0,1.3704538E-2,0E0,2.3531014E-1,1.4718845E-1,2.7253628E-1,3.5580114E-1,5.7085776E-1,6.4334655E-1,8.7202233E-1,7.115912E-1,1.8689992E-1,1.2096873E-1,5.548239E-1,7.5489414E-1,8.326617E-2,0E0,3.2118452E-1,1.3299017E-1,3.093657E-1,3.5646224E-1,4.8085064E-1,7.087022E-2,0E0,0E0,0E0,0E0,0E0,0E0,0E0,0E0,0E0,0E0,0E0,0E0,0E0,0E0,0E0,0E0,0E0,0E0,0E0,0E0,0E0,0E0,0E0,0E0,0E0,0E0,0E0,0E0,0E0,0E0,0E0,0E0,0E0,0E0,0E0,0E0,0E0,0E0,0E0,0E0,0E0,0E0,0E0,0E0,0E0,0E0,0E0,0E0,0E0,0E0,0E0,0E0],"parents":[2147483647,0,0,1,1,2,2,3,3,4,4,5,5,6,6,7,7,8,8,9,9,10,10,11,11,12,12,13,13,14,14,15,15,16,16,18,18,19,19,20,20,21,21,22,22,23,23,24,24,25,25,26,26,27,27,28,28,29,29,30,30,31,31,32,32,33,33,34,34,35,35,36,36,39,39,41,41,42,42,43,43,44,44,45,45,46,46,47,47,48,48,49,49,50,50,51,51,52,52,53,53,55,55,56,56,57,57,58,58,59,59,60,60],"right_children":[2,4,6,8,10,12,14,16,18,20,22,24,26,28,30,32,34,-1,36,38,40,42,44,46,48,50,52,54,56,58,60,62,64,66,68,70,72,-1,-1,74,-1,76,78,80,82,84,86,88,90,92,94,96,98,100,-1,102,104,106,108,110,112,-1,-1,-1,-1,-1,-1,-1,-1,-1,-1,-1,-1,-1,-1,-1,-1,-1,-1,-1,-1,-1,-1,-1,-1,-1,-1,-1,-1,-1,-1,-1,-1,-1,-1,-1,-1,-1,-1,-1,-1,-1,-1,-1,-1,-1,-1,-1,-1,-1,-1,-1,-1],"split_conditions":[9.582543E-2,1.19260535E-1,4.177578E-1,2.7538627E-2,1.9725622E-1,-3.75741E-1,2.6580063E-1,-5.050612E-1,-6.254886E-1,-6.238511E-1,-3.9008784E-1,3.5707556E-2,-1.3567755E-1,3.501823E-1,1.08992115E-1,4.3440622E-1,1.3095963E-1,-2.4366928E-2,-5.4072994E-1,-9.2200495E-2,1.8800868E-1,4.9289763E-2,-5.1255086E-3,-1.964382E-1,2.8801417E-1,-5.5509806E-4,3.2148197E-1,3.8914183E-1,5.4027066E-3,2.2228863E-2,1.2230122E-1,-4.5771456E-1,-6.003059E-1,1.1235001E-1,-2.6070437E-1,2.0817317E-2,2.9328144E-1,4.7818534E-3,-1.6030645E-2,1.2830812E-1,5.5034403E-3,5.8222026E-1,1.2345528E-1,4.7858357E-2,1.1511971E-1,1.2682246E-1,3.376481E-1,-3.0890274E-1,-4.5552142E-2,5.057827E-1,7.740992E-2,7.957172E-1,4.030292E-3,1.6999264E-1,-1.4377837E-2,-9.1360345E-2,-2.764534E-1,4.444052E-2,1.223692E-2,-2.4814153E-1,-2.2990664E-2,-2.7921593E-2,-1.3585207E-3,-2.1545041E-2,8.519798E-3,-2.1332836E-2,1.0671321E-2,5.7336944E-3,-7.978986E-3,-1.3834797E-2,5.011805E-3,7.6839025E-3,-6.402415E-3,1.4447483E-2,4.7818534E-3,1.06270155E-2,-1.5774792E-2,-2.3637133E-2,5.0095203E-3,4.6039023E-3,-2.1820148E-2,-1.7442096E-2,8.143766E-3,1.0232652E-2,-5.8487854E-3,-1.652029E-2,-2.4073226E-3,-1.2726952E-2,6.7776087E-4,-2.2034233E-2,6.8284594E-3,-1.887342E-2,1.1352303E-2,1.7638473E-2,-1.0741369E-2,-1.46357445E-2,4.6571405E-3,-8.927242E-3,9.030839E-3,9.045893E-3,2.917772E-2,-1.8399649E-3,-2.0329926E-2,-1.4377837E-2,9.045893E-3,-2.0025006E-2,3.9497404E-3,9.436122E-3,2.5457777E-3,8.681114E-3,-1.4469648E-2,3.0424118E-3,-2.1766497E-2],"split_indices":[558,35,325,701,452,462,585,567,554,365,105,593,156,582,329,367,729,0,292,5,401,560,753,704,191,730,642,7,224,531,36,378,437,734,747,388,190,0,0,730,0,690,60,646,274,421,729,269,425,75,4,396,269,139,0,50,88,296,62,187,6,0,0,0,0,0,0,0,0,0,0,0,0,0,0,0,0,0,0,0,0,0,0,0,0,0,0,0,0,0,0,0,0,0,0,0,0,0,0,0,0,0,0,0,0,0,0,0,0,0,0,0,0],"split_type":[0,0,0,0,0,0,0,0,0,0,0,0,0,0,0,0,0,0,0,0,0,0,0,0,0,0,0,0,0,0,0,0,0,0,0,0,0,0,0,0,0,0,0,0,0,0,0,0,0,0,0,0,0,0,0,0,0,0,0,0,0,0,0,0,0,0,0,0,0,0,0,0,0,0,0,0,0,0,0,0,0,0,0,0,0,0,0,0,0,0,0,0,0,0,0,0,0,0,0,0,0,0,0,0,0,0,0,0,0,0,0,0,0],"sum_hessian":[3.73E3,1.835E3,1.895E3,1.706E3,1.29E2,1.428E3,4.67E2,4.53E2,1.253E3,3.3E1,9.6E1,7.47E2,6.81E2,8E1,3.87E2,8.6E1,3.67E2,4E0,1.249E3,6E0,2.7E1,3.5E1,6.1E1,3.09E2,4.38E2,2.5E1,6.56E2,1.7E1,6.3E1,3.32E2,5.5E1,5.2E1,3.4E1,2E1,3.47E2,1.68E2,1.081E3,3E0,3E0,2E1,7E0,2.7E1,8E0,4.1E1,2E1,1.47E2,1.62E2,2.48E2,1.9E2,9E0,1.6E1,4.47E2,2.09E2,1.5E1,2E0,4.8E1,1.5E1,2E1,3.12E2,4E1,1.5E1,2.3E1,2.9E1,4E0,3E1,1.5E1,5E0,3.19E2,2.8E1,2.4E1,1.44E2,1.062E3,1.9E1,1.7E1,3E0,2.4E1,3E0,6E0,2E0,4E0,3.7E1,9E0,1.1E1,2.6E1,1.21E2,1.17E2,4.5E1,6.5E1,1.83E2,8E0,1.82E2,7E0,2E0,1.5E1,1E0,4.32E2,1.5E1,1.83E2,2.6E1,1.3E1,2E0,1.3E1,3.5E1,2E0,1.3E1,1E1,1E1,1.84E2,1.28E2,2.8E1,1.2E1,1E0,1.4E1],"tree_param":{"num_deleted":"0","num_feature":"769","num_nodes":"113","size_leaf_vector":"1"}},{"base_weights":[-1.1288285E-4,4.168776E-2,-4.0590663E-2,4.7772627E-2,-3.8531907E-2,1.6862623E-2,-6.3839816E-2,5.539687E-2,-5.1122857E-3,3.3180214E-2,-1.0047344E-1,5.6188755E-2,-1.7170368E-2,-8.405391E-2,-8.530351E-4,6.0195044E-2,-2.5746245E-2,2.674235E-2,-1.1140452E-1,8.582673E-2,-6.4048916E-2,-2.3814286E-1,-5.527245E-2,8.149909E-2,-1.5669938E-2,-6.0123563E-2,2.9864823E-2,-1.09454334E-1,-4.3790143E-2,3.2696072E-2,-5.5163868E-2,7.374184E-2,3.825818E-2,3.136483E-2,-1.6178298E-1,4.1230936E-2,-2.0485151E-1,-2.5575393E-1,3.1677768E-2,-7.1685866E-2,9.600334E-2,-1.8818843E-1,7.719865E-2,-3.22213E-2,-1.7626256E-2,7.037482E-2,-1.054028E-1,9.057523E-2,-8.911376E-2,-1.6286464E-1,4.5987647E-2,-2.0880608E-2,-1.6093954E-1,4.8133727E-2,-1.7053704E-1,-5.7658885E-2,-1.308858E-1,-8.429785E-2,2.6153615E-3,-1.1924574E-1,4.7146644E-2,-1.8017861E-1,-1.7606813E-2,7.778769E-3,-7.2115823E-3,4.472889E-3,-1.9119859E-2,-1.7600743E-2,6.6653015E-3,-2.2611864E-2,7.963306E-3,-1.9784695E-2,5.530074E-3,-2.696978E-2,3.6355716E-3,-2.8301883E-2,3.8528126E-3,7.5047985E-3,-1.6548675E-2,-8.6731464E-4,-9.885565E-3,6.427891E-3,1.21341385E-2,2.5672198E-3,-2.0996414E-2,1.0359515E-2,-9.338322E-3,-1.2431593E-2,1.0706749E-2,-1.887878E-2,-2.494005E-3,9.690321E-3,-1.4901871E-2,-2.1215374E-2,7.6356963E-3,-2.2705646E-2,2.4759013E-3,9.647545E-3,-9.736225E-3,7.937965E-3,-6.1976956E-3,-1.9690448E-2,-3.1937196E-4,-7.612539E-3,7.277196E-3,-2.9019091E-2,5.5016535E-3,-7.93915E-3,9.143869E-3,4.544794E-3,-1.3935054E-2,7.1092504E-3,-1.0085463E-2,5.194222E-3,-8.37451E-3,6.7108027E-3,-2.1801496E-2,2.7723338E-3,1.43995425E-2,-2.0477384E-2,2.5424404E-2,5.46335E-3,-7.7481023E-3],"categories":[],"categories_nodes":[],"categories_segments":[],"categories_sizes":[],"default_left":[0,0,0,0,0,0,0,0,0,0,0,0,0,0,0,0,0,0,0,0,0,0,0,0,0,0,0,0,0,0,0,0,0,0,0,0,0,0,0,0,0,0,0,0,0,0,0,0,0,0,0,0,0,0,0,0,0,0,0,0,0,0,0,0,0,0,0,0,0,0,0,0,0,0,0,0,0,0,0,0,0,0,0,0,0,0,0,0,0,0,0,0,0,0,0,0,0,0,0,0,0,0,0,0,0,0,0,0,0,0,0,0,0,0,0,0,0,0,0,0,0,0,0],"id":2,"left_children":[1,3,5,7,9,11,13,15,17,19,21,23,25,27,29,31,33,35,37,39,41,43,45,47,49,51,53,55,57,59,61,63,65,67,69,71,73,75,77,79,81,83,85,-1,-1,87,89,91,93,95,97,99,101,103,105,107,109,111,113,115,117,119,121,-1,-1,-1,-1,-1,-1,-1,-1,-1,-1,-1,-1,-1,-1,-1,-1,-1,-1,-1,-1,-1,-1,-1,-1,-1,-1,-1,-1,-1,-1,-1,-1,-1,-1,-1,-1,-1,-1,-1,-1,-1,-1,-1,-1,-1,-1,-1,-1,-1,-1,-1,-1,-1,-1,-1,-1,-1,-1,-1,-1],"loss_changes":[6.314533E0,8.980403E-1,2.5336401E0,6.8855786E-1,5.8078843E-1,7.330619E-1,1.7187767E0,5.824437E-1,7.3433375E-1,3.177424E-1,4.2243284E-1,4.6324402E-1,5.957672E-1,1.0404229E0,6.01268E-1,4.1589737E-1,6.576874E-1,5.688092E-1,1.0407939E0,7.099983E-2,4.0028477E-1,3.164476E-2,3.4754974E-1,2.9919064E-1,6.1555964E-1,6.0591227E-1,5.244268E-1,6.87346E-1,7.464934E-1,4.5353377E-1,5.88421E-1,5.190129E-1,8.10316E-1,4.507988E-1,4.0629804E-1,5.42418E-1,1.662189E-1,2.1149337E-1,2.347472E-1,4.278737E-3,2.2746056E-2,6.1273843E-2,5.9204467E-2,0E0,0E0,1.2760976E-1,2.5695768E-1,2.858299E-1,2.1979459E-1,2.4649972E-1,3.5678932E-1,4.6639672E-1,2.433238E-1,4.0353796E-1,3.3982554E-1,6.067111E-1,6.660714E-1,5.525956E-1,7.966894E-1,3.459388E-1,3.47778E-1,3.6191976E-1,4.281156E-1,0E0,0E0,0E0,0E0,0E0,0E0,0E0,0E0,0E0,0E0,0E0,0E0,0E0,0E0,0E0,0E0,0E0,0E0,0E0,0E0,0E0,0E0,0E0,0E0,0E0,0E0,0E0,0E0,0E0,0E0,0E0,0E0,0E0,0E0,0E0,0E0,0E0,0E0,0E0,0E0,0E0,0E0,0E0,0E0,0E0,0E0,0E0,0E0,0E0,0E0,0E0,0E0,0E0,0E0,0E0,0E0,0E0,0E0,0E0,0E0],"parents":[2147483647,0,0,1,1,2,2,3,3,4,4,5,5,6,6,7,7,8,8,9,9,10,10,11,11,12,12,13,13,14,14,15,15,16,16,17,17,18,18,19,19,20,20,21,21,22,22,23,23,24,24,25,25,26,26,27,27,28,28,29,29,30,30,31,31,32,32,33,33,34,34,35,35,36,36,37,37,38,38,39,39,40,40,41,41,42,42,45,45,46,46,47,47,48,48,49,49,50,50,51,51,52,52,53,53,54,54,55,55,56,56,57,57,58,58,59,59,60,60,61,61,62,62],"right_children":[2,4,6,8,10,12,14,16,18,20,22,24,26,28,30,32,34,36,38,40,42,44,46,48,50,52,54,56,58,60,62,64,66,68,70,72,74,76,78,80,82,84,86,-1,-1,88,90,92,94,96,98,100,102,104,106,108,110,112,114,116,118,120,122,-1,-1,-1,-1,-1,-1,-1,-1,-1,-1,-1,-1,-1,-1,-1,-1,-1,-1,-1,-1,-1,-1,-1,-1,-1,-1,-1,-1,-1,-1,-1,-1,-1,-1,-1,-1,-1,-1,-1,-1,-1,-1,-1,-1,-1,-1,-1,-1,-1,-1,-1,-1,-1,-1,-1,-1,-1,-1,-1,-1],"split_conditions":[9.582543E-2,1.19260535E-1,-5.387565E-1,1.1532404E-1,-2.771001E-1,2.0219468E-2,3.9613402E-1,-2.4315748E-2,1.1559491E-2,3.1988275E-1,-1.21282205E-1,3.7523395E-1,1.6600414E-1,7.869974E-2,-7.529169E-2,4.6673916E-2,2.863118E-1,-4.1110784E-2,-4.330435E-1,-2.7392206E-1,4.1072547E-1,-3.7058672E-1,-6.473127E-1,7.384259E-1,-1.1602142E-2,3.4844053E-1,-1.5929303E-1,-5.366855E-1,-6.5801725E-2,1.2220631E-1,-4.5206726E-1,3.9489803E-1,2.6311728E-1,-1.7397672E-1,-6.2328182E-2,-8.3033544E-1,-6.6011304E-1,-5.9844255E-3,-1.5038756E-1,-3.540579E-1,4.2167294E-1,-2.0982134E-1,2.2343189E-1,-3.22213E-2,-1.7626256E-2,-2.3386846E-1,1.6930637E-1,1.05897486E-1,1.7852968E-1,6.920837E-2,-3.0948374E-2,-1.1081643E-2,-4.7563687E-2,-8.625185E-2,-3.3098185E-1,2.6639414E-1,-1.3567755E-1,2.2475882E-1,-3.827425E-1,-1.0000168E-1,3.6363718E-1,3.0875587E-1,-1.250183E-1,7.778769E-3,-7.2115823E-3,4.472889E-3,-1.9119859E-2,-1.7600743E-2,6.6653015E-3,-2.2611864E-2,7.963306E-3,-1.9784695E-2,5.530074E-3,-2.696978E-2,3.6355716E-3,-2.8301883E-2,3.8528126E-3,7.5047985E-3,-1.6548675E-2,-8.6731464E-4,-9.885565E-3,6.427891E-3,1.21341385E-2,2.5672198E-3,-2.0996414E-2,1.0359515E-2,-9.338322E-3,-1.2431593E-2,1.0706749E-2,-1.887878E-2,-2.494005E-3,9.690321E-3,-1.4901871E-2,-2.1215374E-2,7.6356963E-3,-2.2705646E-2,2.4759013E-3,9.647545E-3,-9.736225E-3,7.937965E-3,-6.1976956E-3,-1.9690448E-2,-3.1937196E-4,-7.612539E-3,7.277196E-3,-2.9019091E-2,5.5016535E-3,-7.93915E-3,9.143869E-3,4.544794E-3,-1.3935054E-2,7.1092504E-3,-1.0085463E-2,5.194222E-3,-8.37451E-3,6.7108027E-3,-2.1801496E-2,2.7723338E-3,1.43995425E-2,-2.0477384E-2,2.5424404E-2,5.46335E-3,-7.7481023E-3],"split_indices":[558,35,104,740,606,419,325,309,329,582,717,188,393,709,261,693,151,239,292,13,32,116,318,230,593,739,722,318,753,362,187,233,522,123,225,117,10,213,115,0,658,7,7,0,0,9,337,561,2,540,169,408,720,427,148,697,156,266,420,60,701,38,135,0,0,0,0,0,0,0,0,0,0,0,0,0,0,0,0,0,0,0,0,0,0,0,0,0,0,0,0,0,0,0,0,0,0,0,0,0,0,0,0,0,0,0,0,0,0,0,0,0,0,0,0,0,0,0,0,0,0,0,0],"split_type":[0,0,0,0,0,0,0,0,0,0,0,0,0,0,0,0,0,0,0,0,0,0,0,0,0,0,0,0,0,0,0,0,0,0,0,0,0,0,0,0,0,0,0,0,0,0,0,0,0,0,0,0,0,0,0,0,0,0,0,0,0,0,0,0,0,0,0,0,0,0,0,0,0,0,0,0,0,0,0,0,0,0,0,0,0,0,0,0,0,0,0,0,0,0,0,0,0,0,0,0,0,0,0,0,0,0,0,0,0,0,0,0,0,0,0,0,0,0,0,0,0,0,0],"sum_hessian":[3.73E3,1.835E3,1.895E3,1.706E3,1.29E2,5.46E2,1.349E3,1.491E3,2.15E2,6E1,6.9E1,2.53E2,2.93E2,1.021E3,3.28E2,1.408E3,8.3E1,1.66E2,4.9E1,3.9E1,2.1E1,1.6E1,5.3E1,1.87E2,6.6E1,1.53E2,1.4E2,6.25E2,3.96E2,2.03E2,1.25E2,8.69E2,5.39E2,5.9E1,2.4E1,1.57E2,9E0,2.4E1,2.5E1,2E0,3.7E1,1.1E1,1E1,5E0,1.1E1,1.5E1,3.8E1,1.78E2,9E0,1.9E1,4.7E1,1.11E2,4.2E1,1.29E2,1.1E1,1.84E2,4.41E2,2.11E2,1.85E2,1.7E1,1.86E2,2.8E1,9.7E1,8.46E2,2.3E1,5.25E2,1.4E1,8E0,5.1E1,1.9E1,5E0,8E0,1.49E2,7E0,2E0,2.2E1,2E0,2.1E1,4E0,1E0,1E0,1.8E1,1.9E1,1E0,1E1,9E0,1E0,2E0,1.3E1,1.8E1,2E1,1.74E2,4E0,5E0,4E0,1.4E1,5E0,3.5E1,1.2E1,3.2E1,7.9E1,3.4E1,8E0,2.1E1,1.08E2,7E0,4E0,1.61E2,2.3E1,2E1,4.21E2,2E1,1.91E2,1.18E2,6.7E1,6E0,1.1E1,1.56E2,3E1,2.7E1,1E0,4.4E1,5.3E1],"tree_param":{"num_deleted":"0","num_feature":"769","num_nodes":"123","size_leaf_vector":"1"}},{"base_weights":[-1.7774077E-4,3.0994333E-2,-4.425405E-2,-3.0838793E-2,3.9467007E-2,-1.5204228E-2,-9.015552E-2,2.7898343E-5,-1.2343929E-1,4.7293227E-2,-1.9508176E-2,-6.195608E-2,1.933094E-2,-1.3370816E-1,-5.681155E-2,3.659104E-2,-7.766922E-2,-1.732259E-1,-8.504857E-3,4.9520027E-2,-7.018707E-2,-7.907825E-2,3.1921055E-2,2.832247E-2,-8.875335E-2,3.8850613E-2,-6.1117537E-2,2.0313045E-1,-1.3978851E-1,-2.0664537E-2,-1.08560726E-1,-1.6889488E-2,5.0753403E-2,-1.509659E-1,5.0782163E-2,-2.2311142E-1,-2.9430997E-2,-1.437747E-1,6.9399685E-2,-8.944652E-3,5.4347273E-2,-2.3179598E-1,2.5503121E-2,-1.9464229E-1,-2.8035987E-2,5.9385218E-2,-9.561537E-2,7.053497E-2,-9.5977426E-2,-1.1191778E-1,-5.8879894E-3,-4.4971433E-2,5.429381E-2,-8.513561E-2,2.0987213E-1,6.8717153E-4,2.5047723E-2,-1.5421993E-1,-4.1448377E-2,3.186521E-2,-7.785514E-2,-1.2532282E-1,9.940585E-2,7.1918787E-3,-1.018992E-2,7.859794E-3,-2.0054076E-2,9.602284E-3,-1.9942692E-2,-1.9867925E-2,-3.0401502E-2,-1.5917772E-2,7.155792E-3,-1.7007945E-2,2.0179257E-3,1.10634025E-2,-1.186709E-2,2.1689364E-3,-1.0973875E-2,5.629073E-3,-8.890965E-3,7.3797773E-3,-3.002945E-2,8.314829E-3,-2.4027593E-2,7.227433E-3,-2.3535447E-2,-1.7868437E-2,2.35775E-3,7.078922E-3,-1.7372949E-2,-2.7584335E-2,5.0376556E-3,-1.1202537E-2,8.94004E-3,4.921732E-3,-1.8637544E-2,-1.1653087E-2,2.9597268E-2,-1.6780373E-2,3.4696087E-3,-1.0388524E-2,9.463563E-3,3.2858462E-3,1.2109282E-2,-1.1477967E-3,-1.6315773E-2,1.1260403E-2,3.6687363E-2,-1.6084885E-2,7.2361305E-3,5.4085744E-3,-1.2937236E-2,-1.2575209E-2,6.5534115E-3,2.4499537E-3,-1.28622055E-2,-2.4370279E-3,-1.4912704E-2,-1.4196768E-2,1.6881859E-2],"categories":[],"categories_nodes":[],"categories_segments":[],"categories_sizes":[],"default_left":[0,0,0,0,0,0,0,0,0,0,0,0,0,0,0,0,0,0,0,0,0,0,0,0,0,0,0,0,0,0,0,0,0,0,0,0,0,0,0,0,0,0,0,0,0,0,0,0,0,0,0,0,0,0,0,0,0,0,0,0,0,0,0,0,0,0,0,0,0,0,0,0,0,0,0,0,0,0,0,0,0,0,0,0,0,0,0,0,0,0,0,0,0,0,0,0,0,0,0,0,0,0,0,0,0,0,0,0,0,0,0,0,0,0,0,0,0,0,0,0,0],"id":3,"left_children":[1,3,5,7,9,11,13,15,17,19,21,23,25,27,29,31,33,35,37,39,41,43,45,47,49,51,53,55,57,59,61,-1,63,65,67,69,71,73,75,77,79,81,83,85,87,89,91,93,95,97,99,101,103,105,107,-1,-1,109,111,113,115,117,119,-1,-1,-1,-1,-1,-1,-1,-1,-1,-1,-1,-1,-1,-1,-1,-1,-1,-1,-1,-1,-1,-1,-1,-1,-1,-1,-1,-1,-1,-1,-1,-1,-1,-1,-1,-1,-1,-1,-1,-1,-1,-1,-1,-1,-1,-1,-1,-1,-1,-1,-1,-1,-1,-1,-1,-1,-1,-1],"loss_changes":[5.127579E0,1.1464448E0,2.0601106E0,7.5458694E-1,8.8848853E-1,1.5318226E0,8.6228275E-1,5.681713E-1,3.7619162E-1,4.4768143E-1,6.9490767E-1,9.774587E-1,8.5977346E-1,5.5885077E-1,6.356238E-1,4.0435457E-1,6.102302E-1,3.2340467E-1,2.3127876E-1,4.709525E-1,5.007719E-1,6.139013E-1,4.3300524E-1,4.9474165E-1,5.9631443E-1,5.7201314E-1,7.142931E-1,4.4739872E-2,3.555007E-1,6.093309E-1,5.004915E-1,0E0,4.2089012E-1,4.8236638E-1,2.9082057E-1,6.8045855E-3,1.8172917E-1,3.7934214E-2,1.2169857E-1,3.9760932E-1,4.3376064E-1,2.7335376E-1,3.4171703E-1,3.647462E-1,5.79599E-1,2.8080067E-1,5.927563E-1,2.5110066E-1,3.2418042E-1,4.9172688E-1,4.5923498E-1,5.7734126E-1,5.286733E-1,5.67073E-1,9.6129656E-2,0E0,0E0,3.4508133E-1,2.9258835E-1,5.707621E-1,5.071855E-1,3.0876827E-1,2.082652E-1,0E0,0E0,0E0,0E0,0E0,0E0,0E0,0E0,0E0,0E0,0E0,0E0,0E0,0E0,0E0,0E0,0E0,0E0,0E0,0E0,0E0,0E0,0E0,0E0,0E0,0E0,0E0,0E0,0E0,0E0,0E0,0E0,0E0,0E0,0E0,0E0,0E0,0E0,0E0,0E0,0E0,0E0,0E0,0E0,0E0,0E0,0E0,0E0,0E0,0E0,0E0,0E0,0E0,0E0,0E0,0E0,0E0,0E0],"parents":[2147483647,0,0,1,1,2,2,3,3,4,4,5,5,6,6,7,7,8,8,9,9,10,10,11,11,12,12,13,13,14,14,15,15,16,16,17,17,18,18,19,19,20,20,21,21,22,22,23,23,24,24,25,25,26,26,27,27,28,28,29,29,30,30,32,32,33,33,34,34,35,35,36,36,37,37,38,38,39,39,40,40,41,41,42,42,43,43,44,44,45,45,46,46,47,47,48,48,49,49,50,50,51,51,52,52,53,53,54,54,57,57,58,58,59,59,60,60,61,61,62,62],"right_children":[2,4,6,8,10,12,14,16,18,20,22,24,26,28,30,32,34,36,38,40,42,44,46,48,50,52,54,56,58,60,62,-1,64,66,68,70,72,74,76,78,80,82,84,86,88,90,92,94,96,98,100,102,104,106,108,-1,-1,110,112,114,116,118,120,-1,-1,-1,-1,-1,-1,-1,-1,-1,-1,-1,-1,-1,-1,-1,-1,-1,-1,-1,-1,-1,-1,-1,-1,-1,-1,-1,-1,-1,-1,-1,-1,-1,-1,-1,-1,-1,-1,-1,-1,-1,-1,-1,-1,-1,-1,-1,-1,-1,-1,-1,-1,-1,-1,-1,-1,-1,-1],"split_conditions":[1.5045352E-1,1.9187686E-1,1.2555273E-1,-2.9766423E-1,1.2995738E-1,-2.986966E-1,2.4079792E-1,2.5042796E-1,-3.0451384E-1,2.745134E-1,3.63698E-1,-1.7500314E-1,6.08861E-2,-4.027328E-1,9.506859E-2,-4.328043E-1,3.8584653E-1,-4.688529E-1,-8.131614E-3,-9.2795545E-1,-1.2412235E-1,-1.4504662E-1,2.4041176E-1,7.657842E-2,2.5738E-1,-9.457976E-1,4.2846057E-1,-4.712705E-1,4.2175496E-1,3.089117E-1,4.7662187E-1,-1.6889488E-2,3.2191312E-1,-4.2642668E-1,-2.7632102E-1,6.499825E-1,-1.7241386E-1,-9.611748E-2,1.3293386E-1,1.918421E-1,6.332538E-1,-4.1289964E-1,5.160318E-2,-2.1275586E-1,-1.0155702E-1,2.855402E-1,1.875443E-1,-2.0390078E-2,2.797275E-1,1.9086355E-1,1.4550212E-1,-1.6827637E-1,9.157517E-2,-1.5560685E-1,3.118693E-1,6.8717153E-4,2.5047723E-2,6.0416234E-1,1.0444785E-1,1.0819986E-1,-6.063938E-1,-4.7991854E-1,1.1184379E-1,7.1918787E-3,-1.018992E-2,7.859794E-3,-2.0054076E-2,9.602284E-3,-1.9942692E-2,-1.9867925E-2,-3.0401502E-2,-1.5917772E-2,7.155792E-3,-1.7007945E-2,2.0179257E-3,1.10634025E-2,-1.186709E-2,2.1689364E-3,-1.0973875E-2,5.629073E-3,-8.890965E-3,7.3797773E-3,-3.002945E-2,8.314829E-3,-2.4027593E-2,7.227433E-3,-2.3535447E-2,-1.7868437E-2,2.35775E-3,7.078922E-3,-1.7372949E-2,-2.7584335E-2,5.0376556E-3,-1.1202537E-2,8.94004E-3,4.921732E-3,-1.8637544E-2,-1.1653087E-2,2.9597268E-2,-1.6780373E-2,3.4696087E-3,-1.0388524E-2,9.463563E-3,3.2858462E-3,1.2109282E-2,-1.1477967E-3,-1.6315773E-2,1.1260403E-2,3.6687363E-2,-1.6084885E-2,7.2361305E-3,5.4085744E-3,-1.2937236E-2,-1.2575209E-2,6.5534115E-3,2.4499537E-3,-1.28622055E-2,-2.4370279E-3,-1.4912704E-2,-1.4196768E-2,1.6881859E-2],"split_indices":[558,325,273,41,740,621,298,403,289,498,325,261,232,29,503,311,547,257,765,10,546,119,394,456,97,10,421,1,325,660,317,0,368,748,292,603,142,0,94,39,266,53,66,732,124,664,524,646,103,630,729,446,200,92,15,0,0,265,506,325,747,525,23,0,0,0,0,0,0,0,0,0,0,0,0,0,0,0,0,0,0,0,0,0,0,0,0,0,0,0,0,0,0,0,0,0,0,0,0,0,0,0,0,0,0,0,0,0,0,0,0,0,0,0,0,0,0,0,0,0,0],"split_type":[0,0,0,0,0,0,0,0,0,0,0,0,0,0,0,0,0,0,0,0,0,0,0,0,0,0,0,0,0,0,0,0,0,0,0,0,0,0,0,0,0,0,0,0,0,0,0,0,0,0,0,0,0,0,0,0,0,0,0,0,0,0,0,0,0,0,0,0,0,0,0,0,0,0,0,0,0,0,0,0,0,0,0,0,0,0,0,0,0,0,0,0,0,0,0,0,0,0,0,0,0,0,0,0,0,0,0,0,0,0,0,0,0,0,0,0,0,0,0,0,0],"sum_hessian":[3.73E3,2.185E3,1.545E3,2.63E2,1.922E3,9.47E2,5.98E2,1.98E2,6.5E1,1.697E3,2.25E2,4.02E2,5.45E2,2.58E2,3.4E2,1.35E2,6.3E1,4.5E1,2E1,1.666E3,3.1E1,1.04E2,1.21E2,9.2E1,3.1E2,4.39E2,1.06E2,4E0,2.54E2,2.01E2,1.39E2,8E0,1.27E2,4E1,2.3E1,3.3E1,1.2E1,7E0,1.3E1,1.27E2,1.539E3,1.1E1,2E1,3.1E1,7.3E1,1E2,2.1E1,6.9E1,2.3E1,2.42E2,6.8E1,6.8E1,3.71E2,9.8E1,8E0,1E0,3E0,2.21E2,3.3E1,1.05E2,9.6E1,1.29E2,1E1,1.12E2,1.5E1,7E0,3.3E1,2E1,3E0,2.8E1,5E0,5E0,7E0,6E0,1E0,1.1E1,2E0,9.8E1,2.9E1,1.519E3,2E1,2E0,9E0,1.7E1,3E0,4E0,2.7E1,1.8E1,5.5E1,9.6E1,4E0,9E0,1.2E1,6E0,6.3E1,9E0,1.4E1,2.4E2,2E0,1.3E1,5.5E1,4.8E1,2E1,2.82E2,8.9E1,5.1E1,4.7E1,6E0,2E0,2.15E2,6E0,1.6E1,1.7E1,1.8E1,8.7E1,3.2E1,6.4E1,2.5E1,1.04E2,2E0,8E0],"tree_param":{"num_deleted":"0","num_feature":"769","num_nodes":"121","size_leaf_vector":"1"}},{"base_weights":[-2.1905312E-4,3.3799116E-2,-3.3160582E-2,3.9094787E-2,-3.599708E-2,1.4702506E-2,-5.2529436E-2,1.0036757E-2,4.9583822E-2,2.7344434E-2,-9.068044E-2,4.8084762E-2,-1.41879525E-2,-7.546666E-2,-1.18586235E-2,5.5033855E-2,-1.416789E-2,5.847677E-2,1.6647547E-2,7.246013E-2,-5.592704E-2,-2.1481703E-1,-4.9921144E-2,6.658352E-2,-2.6853109E-2,2.7319193E-2,-5.531878E-2,1.2223556E-2,-8.776175E-2,4.8511796E-2,-3.802567E-2,8.792187E-2,-1.0543248E-2,9.853576E-3,-9.0431035E-2,-6.977953E-3,6.325116E-2,2.4936523E-2,-2.959752E-1,-7.208825E-2,8.1965E-2,-1.6369233E-1,6.671937E-2,2.3379743E-3,-2.3116556E-1,4.6544116E-2,-9.944667E-2,-7.965198E-2,7.695375E-2,-1.366794E-1,4.8411567E-2,9.708937E-2,-1.9239904E-2,4.4027474E-4,-1.14181675E-1,-3.5828035E-2,1.210613E-1,-9.887083E-2,-1.860253E-2,7.27016E-2,-8.611552E-2,5.1524807E-2,-6.0111098E-2,-1.07725E-2,9.867395E-3,5.376903E-3,-1.3184318E-2,2.1155644E-3,-2.3638668E-2,-2.252721E-2,-2.5292763E-3,5.9205964E-3,-1.4805368E-2,6.701119E-3,-3.6701565E-3,3.507747E-3,-2.3412311E-2,7.1235285E-3,-3.690495E-2,-1.3040632E-3,-9.509174E-3,1.0416268E-2,5.15141E-3,2.157405E-3,-1.82496E-2,8.878057E-3,-7.6946327E-3,-3.0293345E-2,-1.5781147E-2,1.005848E-2,-1.2488677E-2,-1.5159822E-2,4.4828551E-4,5.0734724E-3,-2.1728652E-2,-1.2725953E-3,9.243692E-3,7.7802404E-3,-2.085676E-2,1.0590758E-2,-5.1449416E-3,-1.0487275E-2,1.136843E-2,-1.3175246E-2,2.6768947E-3,4.4147023E-3,-1.1083328E-2,-3.7683155E-3,-2.0862723E-2,6.231394E-3,-1.0638974E-2,1.4091368E-2,-1.2443369E-2,-2.215875E-3,-1.0880367E-2,1.7708397E-3,-1.7562494E-2,1.0403898E-2,-4.069487E-3,4.9159247E-3,-1.7658925E-2,6.773313E-3,-2.247416E-2,-9.780461E-3,4.409377E-4],"categories":[],"categories_nodes":[],"categories_segments":[],"categories_sizes":[],"default_left":[0,0,0,0,0,0,0,0,0,0,0,0,0,0,0,0,0,0,0,0,0,0,0,0,0,0,0,0,0,0,0,0,0,0,0,0,0,0,0,0,0,0,0,0,0,0,0,0,0,0,0,0,0,0,0,0,0,0,0,0,0,0,0,0,0,0,0,0,0,0,0,0,0,0,0,0,0,0,0,0,0,0,0,0,0,0,0,0,0,0,0,0,0,0,0,0,0,0,0,0,0,0,0,0,0,0,0,0,0,0,0,0,0,0,0,0,0,0,0,0,0,0,0,0,0],"id":4,"left_children":[1,3,5,7,9,11,13,15,17,19,21,23,25,27,29,31,33,35,37,39,41,43,45,47,49,51,53,55,57,59,61,63,65,67,69,71,73,75,77,79,81,83,85,-1,87,89,91,93,95,97,99,101,103,105,107,109,111,113,115,117,119,121,123,-1,-1,-1,-1,-1,-1,-1,-1,-1,-1,-1,-1,-1,-1,-1,-1,-1,-1,-1,-1,-1,-1,-1,-1,-1,-1,-1,-1,-1,-1,-1,-1,-1,-1,-1,-1,-1,-1,-1,-1,-1,-1,-1,-1,-1,-1,-1,-1,-1,-1,-1,-1,-1,-1,-1,-1,-1,-1,-1,-1,-1,-1],"loss_changes":[4.182119E0,6.8002534E-1,1.7584648E0,5.1978016E-1,4.5276412E-1,5.2822477E-1,1.2584872E0,4.9524876E-1,3.663237E-1,2.3322038E-1,3.434565E-1,3.5389733E-1,5.034349E-1,9.315243E-1,7.7274597E-1,3.4384245E-1,5.4314905E-1,3.0888557E-1,7.01855E-1,6.0865268E-2,3.0169597E-1,7.1605444E-2,2.6261324E-1,3.1549466E-1,4.281849E-1,4.7938815E-1,4.8580685E-1,5.6392884E-1,5.797601E-1,4.8823893E-1,6.775135E-1,2.336123E-1,4.2834714E-1,6.339643E-1,6.1791754E-1,6.4367783E-1,3.482182E-1,6.965153E-1,2.1412486E-1,2.8348472E-3,2.031985E-2,4.574144E-2,4.1695148E-2,0E0,3.6425114E-2,1.8858236E-1,1.9580269E-1,2.6226395E-1,2.6638484E-1,3.4002E-1,1.8343875E-1,2.0966375E-1,4.6424192E-1,3.7937513E-1,5.1233435E-1,5.2600944E-1,1.7836511E-1,4.943924E-1,6.0748273E-1,4.5198077E-1,2.9017365E-1,3.1971383E-1,6.668E-1,0E0,0E0,0E0,0E0,0E0,0E0,0E0,0E0,0E0,0E0,0E0,0E0,0E0,0E0,0E0,0E0,0E0,0E0,0E0,0E0,0E0,0E0,0E0,0E0,0E0,0E0,0E0,0E0,0E0,0E0,0E0,0E0,0E0,0E0,0E0,0E0,0E0,0E0,0E0,0E0,0E0,0E0,0E0,0E0,0E0,0E0,0E0,0E0,0E0,0E0,0E0,0E0,0E0,0E0,0E0,0E0,0E0,0E0,0E0,0E0,0E0,0E0],"parents":[2147483647,0,0,1,1,2,2,3,3,4,4,5,5,6,6,7,7,8,8,9,9,10,10,11,11,12,12,13,13,14,14,15,15,16,16,17,17,18,18,19,19,20,20,21,21,22,22,23,23,24,24,25,25,26,26,27,27,28,28,29,29,30,30,31,31,32,32,33,33,34,34,35,35,36,36,37,37,38,38,39,39,40,40,41,41,42,42,44,44,45,45,46,46,47,47,48,48,49,49,50,50,51,51,52,52,53,53,54,54,55,55,56,56,57,57,58,58,59,59,60,60,61,61,62,62],"right_children":[2,4,6,8,10,12,14,16,18,20,22,24,26,28,30,32,34,36,38,40,42,44,46,48,50,52,54,56,58,60,62,64,66,68,70,72,74,76,78,80,82,84,86,-1,88,90,92,94,96,98,100,102,104,106,108,110,112,114,116,118,120,122,124,-1,-1,-1,-1,-1,-1,-1,-1,-1,-1,-1,-1,-1,-1,-1,-1,-1,-1,-1,-1,-1,-1,-1,-1,-1,-1,-1,-1,-1,-1,-1,-1,-1,-1,-1,-1,-1,-1,-1,-1,-1,-1,-1,-1,-1,-1,-1,-1,-1,-1,-1,-1,-1,-1,-1,-1,-1,-1,-1,-1,-1,-1],"split_conditions":[9.582543E-2,1.19260535E-1,-5.387565E-1,2.7538627E-2,-2.771001E-1,2.0219468E-2,5.1015455E-2,-1.8935424E-1,-1.9124912E-1,3.1988275E-1,-6.9775514E-2,-3.773719E-1,2.4823667E-1,-2.5328445E-1,-1.3419215E-1,3.0017864E-2,-1.321712E-1,-3.8747333E-2,6.195297E-1,-2.7392206E-1,4.1072547E-1,-4.2144763E-1,1.2789637E-1,-4.0443826E-1,-1.5327267E-1,-6.807646E-2,-1.7618366E-1,-8.100646E-2,5.4783237E-1,9.1081455E-2,-2.8602673E-2,-7.055999E-2,2.1488328E-1,-3.5949335E-1,-1.7316157E-1,1.9345261E-2,-5.357881E-2,7.352409E-2,-4.0773687E-1,-3.540579E-1,-3.5194092E0,-2.0982134E-1,2.2343189E-1,2.3379743E-3,-4.3072677E-1,2.626362E-1,1.294839E-1,-1.7047013E-1,2.5054404E-1,-2.040662E-1,4.6534124E-1,-1.3196534E-1,3.3128008E-1,-4.952569E-2,1.7088781E-1,-6.262474E-1,-1.890215E-1,-2.766995E-1,1.2652159E-1,1.20061554E-1,-1.6918834E-1,1.9033112E-1,3.3024806E-1,-1.07725E-2,9.867395E-3,5.376903E-3,-1.3184318E-2,2.1155644E-3,-2.3638668E-2,-2.252721E-2,-2.5292763E-3,5.9205964E-3,-1.4805368E-2,6.701119E-3,-3.6701565E-3,3.507747E-3,-2.3412311E-2,7.1235285E-3,-3.690495E-2,-1.3040632E-3,-9.509174E-3,1.0416268E-2,5.15141E-3,2.157405E-3,-1.82496E-2,8.878057E-3,-7.6946327E-3,-3.0293345E-2,-1.5781147E-2,1.005848E-2,-1.2488677E-2,-1.5159822E-2,4.4828551E-4,5.0734724E-3,-2.1728652E-2,-1.2725953E-3,9.243692E-3,7.7802404E-3,-2.085676E-2,1.0590758E-2,-5.1449416E-3,-1.0487275E-2,1.136843E-2,-1.3175246E-2,2.6768947E-3,4.4147023E-3,-1.1083328E-2,-3.7683155E-3,-2.0862723E-2,6.231394E-3,-1.0638974E-2,1.4091368E-2,-1.2443369E-2,-2.215875E-3,-1.0880367E-2,1.7708397E-3,-1.7562494E-2,1.0403898E-2,-4.069487E-3,4.9159247E-3,-1.7658925E-2,6.773313E-3,-2.247416E-2,-9.780461E-3,4.409377E-4],"split_indices":[558,35,104,701,606,419,717,348,722,582,765,462,460,66,264,649,650,388,729,13,32,0,54,259,610,158,559,725,607,360,506,433,361,104,663,142,116,111,0,0,3,7,7,0,108,524,260,392,325,135,445,632,642,66,76,366,256,239,197,740,363,33,501,0,0,0,0,0,0,0,0,0,0,0,0,0,0,0,0,0,0,0,0,0,0,0,0,0,0,0,0,0,0,0,0,0,0,0,0,0,0,0,0,0,0,0,0,0,0,0,0,0,0,0,0,0,0,0,0,0,0,0,0,0,0],"split_type":[0,0,0,0,0,0,0,0,0,0,0,0,0,0,0,0,0,0,0,0,0,0,0,0,0,0,0,0,0,0,0,0,0,0,0,0,0,0,0,0,0,0,0,0,0,0,0,0,0,0,0,0,0,0,0,0,0,0,0,0,0,0,0,0,0,0,0,0,0,0,0,0,0,0,0,0,0,0,0,0,0,0,0,0,0,0,0,0,0,0,0,0,0,0,0,0,0,0,0,0,0,0,0,0,0,0,0,0,0,0,0,0,0,0,0,0,0,0,0,0,0,0,0,0,0],"sum_hessian":[3.73E3,1.835E3,1.895E3,1.706E3,1.29E2,5.46E2,1.349E3,4.53E2,1.253E3,6E1,6.9E1,2.53E2,2.93E2,8.62E2,4.87E2,1.58E2,2.95E2,9.86E2,2.67E2,3.9E1,2.1E1,1.6E1,5.3E1,2.03E2,5E1,1.46E2,1.47E2,1.06E2,7.56E2,1.47E2,3.4E2,1.05E2,5.3E1,2.25E2,7E1,6.7E1,9.19E2,2.61E2,6E0,2E0,3.7E1,1.1E1,1E1,1E0,1.5E1,1.8E1,3.5E1,1.3E1,1.9E2,2E1,3E1,5.8E1,8.8E1,7.6E1,7.1E1,7.4E1,3.2E1,6.51E2,1.05E2,1.25E2,2.2E1,6.7E1,2.73E2,5E0,1E2,3.5E1,1.8E1,2.16E2,9E0,2.2E1,4.8E1,4.6E1,2.1E1,8.86E2,3.3E1,2.52E2,9E0,1E0,5E0,1E0,1E0,2E1,1.7E1,1E0,1E1,9E0,1E0,6E0,9E0,1.4E1,4E0,2.3E1,1.2E1,7E0,6E0,2.8E1,1.62E2,5E0,1.5E1,1.9E1,1.1E1,4E0,5.4E1,2.5E1,6.3E1,5.5E1,2.1E1,4E1,3.1E1,3.1E1,4.3E1,3E1,2E0,7.5E1,5.76E2,8.6E1,1.9E1,9.8E1,2.7E1,9E0,1.3E1,6.4E1,3E0,1.72E2,1.01E2],"tree_param":{"num_deleted":"0","num_feature":"769","num_nodes":"125","size_leaf_vector":"1"}},{"base_weights":[-2.7813963E-4,3.4351774E-2,-2.6782833E-2,4.402934E-3,4.438051E-2,-5.155842E-2,1.1683016E-2,-5.5307776E-2,2.5884112E-2,5.4443173E-2,1.2775168E-2,-6.843881E-2,1.2817248E-2,-5.146292E-2,2.4699062E-2,1.8895032E-2,-1.2986049E-1,-5.319901E-2,4.4252366E-2,5.556595E-2,-2.16283E-2,-1.05505794E-1,3.074463E-2,-8.3248526E-2,-4.6249805E-3,-7.8123696E-2,3.9993677E-2,-3.0375937E-2,-2.1562439E-1,-2.685705E-2,4.180342E-2,-1.3688408E-1,5.655448E-2,-1.6631426E-1,7.088774E-2,-1.9187093E-1,1.572318E-2,-2.3341271E-1,4.9852673E-2,5.891994E-2,-3.8929332E-2,4.626031E-2,-2.519966E-1,4.2185854E-2,-1.4351034E-1,-9.131375E-2,1.4330879E-2,-6.890392E-2,5.3397447E-2,4.309097E-3,-1.4613625E-1,-1.3806967E-1,5.6652345E-2,7.291479E-2,-6.0325988E-2,-1.5792832E-2,-3.1097014E-2,8.580708E-3,-1.0880151E-1,1.6479263E-2,7.3331915E-2,-2.9300708E-2,-5.812798E-4,8.918802E-3,-8.388946E-3,4.745535E-3,-1.9354118E-2,9.896939E-3,-7.6882713E-3,-2.9197315E-2,7.367935E-3,5.6329486E-3,-1.4866744E-2,1.809159E-3,-3.0081168E-2,5.4867165E-3,-1.9680183E-2,6.609244E-3,2.0604813E-3,4.219743E-3,-2.8758427E-2,6.209599E-3,-1.2730879E-2,-1.5124492E-3,-3.783797E-2,5.050283E-3,-1.5498655E-2,7.379384E-3,-2.8127223E-2,2.2815151E-2,-9.329535E-3,-5.5111027E-3,1.2486469E-2,1.4079182E-2,-9.911929E-3,8.389149E-3,-6.8217255E-3,7.4325497E-3,-1.01074595E-2,-1.7249098E-2,9.464695E-3,8.364557E-3,-2.0739157E-2,-5.343792E-3,7.213447E-3,1.5117352E-2,-1.0204933E-3,-8.281567E-3,9.482234E-3,-1.3256095E-2,3.2926567E-3,-1.7530566E-2,-2.3908915E-3,-9.339669E-3,3.1064765E-3,7.979569E-3,-3.2094629E-3],"categories":[],"categories_nodes":[],"categories_segments":[],"categories_sizes":[],"default_left":[0,0,0,0,0,0,0,0,0,0,0,0,0,0,0,0,0,0,0,0,0,0,0,0,0,0,0,0,0,0,0,0,0,0,0,0,0,0,0,0,0,0,0,0,0,0,0,0,0,0,0,0,0,0,0,0,0,0,0,0,0,0,0,0,0,0,0,0,0,0,0,0,0,0,0,0,0,0,0,0,0,0,0,0,0,0,0,0,0,0,0,0,0,0,0,0,0,0,0,0,0,0,0,0,0,0,0,0,0,0,0,0,0,0,0,0,0],"id":5,"left_children":[1,3,5,7,9,11,13,15,17,19,21,23,25,27,29,31,33,35,37,39,-1,41,43,45,47,49,51,53,55,57,59,61,63,65,67,69,71,73,75,77,79,81,83,85,87,89,91,93,95,97,99,101,103,105,107,-1,-1,109,111,113,115,-1,-1,-1,-1,-1,-1,-1,-1,-1,-1,-1,-1,-1,-1,-1,-1,-1,-1,-1,-1,-1,-1,-1,-1,-1,-1,-1,-1,-1,-1,-1,-1,-1,-1,-1,-1,-1,-1,-1,-1,-1,-1,-1,-1,-1,-1,-1,-1,-1,-1,-1,-1,-1,-1,-1,-1],"loss_changes":[3.4254377E0,4.8576903E-1,2.015274E0,5.234727E-1,3.8476157E-1,1.3983557E0,6.8263483E-1,5.999119E-1,4.381399E-1,2.9136133E-1,6.281246E-1,9.626355E-1,6.654731E-1,4.8500738E-1,6.0782456E-1,3.30402E-1,4.0696317E-1,5.4779845E-1,3.910584E-1,2.9260755E-1,0E0,8.7871873E-1,5.164387E-1,6.521578E-1,7.234961E-1,3.4823057E-1,6.218456E-1,3.9728114E-1,3.8906217E-2,5.004092E-1,4.1158122E-1,2.2339241E-1,2.1372513E-1,2.7691782E-1,4.4955775E-2,5.265736E-1,2.6871085E-1,9.019783E-2,3.0764115E-1,2.4184942E-1,6.5765756E-1,6.2877044E-2,5.930098E-1,4.0303782E-1,4.9973592E-1,5.049362E-1,4.9812484E-1,5.968703E-1,3.8399225E-1,2.2149141E-1,2.3208213E-1,2.9400235E-1,3.276965E-1,1.901832E-1,3.532872E-1,0E0,0E0,4.2014676E-1,2.893855E-1,4.6444896E-1,1.5929532E-1,0E0,0E0,0E0,0E0,0E0,0E0,0E0,0E0,0E0,0E0,0E0,0E0,0E0,0E0,0E0,0E0,0E0,0E0,0E0,0E0,0E0,0E0,0E0,0E0,0E0,0E0,0E0,0E0,0E0,0E0,0E0,0E0,0E0,0E0,0E0,0E0,0E0,0E0,0E0,0E0,0E0,0E0,0E0,0E0,0E0,0E0,0E0,0E0,0E0,0E0,0E0,0E0,0E0,0E0,0E0,0E0],"parents":[2147483647,0,0,1,1,2,2,3,3,4,4,5,5,6,6,7,7,8,8,9,9,10,10,11,11,12,12,13,13,14,14,15,15,16,16,17,17,18,18,19,19,21,21,22,22,23,23,24,24,25,25,26,26,27,27,28,28,29,29,30,30,31,31,32,32,33,33,34,34,35,35,36,36,37,37,38,38,39,39,40,40,41,41,42,42,43,43,44,44,45,45,46,46,47,47,48,48,49,49,50,50,51,51,52,52,53,53,54,54,57,57,58,58,59,59,60,60],"right_children":[2,4,6,8,10,12,14,16,18,20,22,24,26,28,30,32,34,36,38,40,-1,42,44,46,48,50,52,54,56,58,60,62,64,66,68,70,72,74,76,78,80,82,84,86,88,90,92,94,96,98,100,102,104,106,108,-1,-1,110,112,114,116,-1,-1,-1,-1,-1,-1,-1,-1,-1,-1,-1,-1,-1,-1,-1,-1,-1,-1,-1,-1,-1,-1,-1,-1,-1,-1,-1,-1,-1,-1,-1,-1,-1,-1,-1,-1,-1,-1,-1,-1,-1,-1,-1,-1,-1,-1,-1,-1,-1,-1,-1,-1,-1,-1,-1,-1],"split_conditions":[6.5280184E-2,1.5756393E-2,3.6719245E-1,-3.0929083E-1,-7.297132E-2,7.9328775E-2,2.649312E-1,-1.567362E-1,-5.050612E-1,1.4154297E0,2.530592E-1,5.3861374E-1,2.5773134E-2,-1.4261705E-1,2.754324E-1,-1.0844994E-1,8.183661E-2,-6.3621536E-2,-4.0696657E-1,1.3855314E-2,-2.16283E-2,-7.444182E-2,-5.7176337E-2,2.5777164E-1,3.94866E-1,1.192257E-2,-5.3250927E-1,1.9325824E-2,1.8883644E-1,5.760309E-1,1.9358706E-1,-5.418676E-1,-3.4260848E-1,-6.39828E-1,4.6405688E-1,2.927312E-1,6.528201E-2,2.7700138E-1,1.7696705E-1,-2.942167E-1,3.6213052E-1,4.11706E-1,4.9593326E-2,3.6520728E-1,1.4405432E-1,-1.1287117E-1,3.058078E-1,-4.8406923E-1,4.5026323E-1,3.4907833E-2,1.1885783E-1,-1.9404499E-1,-3.992306E-1,4.8223817E-1,7.0662636E-1,-1.5792832E-2,-3.1097014E-2,-2.2228637E-1,5.1015455E-2,-5.537207E-1,2.1096566E-1,-2.9300708E-2,-5.812798E-4,8.918802E-3,-8.388946E-3,4.745535E-3,-1.9354118E-2,9.896939E-3,-7.6882713E-3,-2.9197315E-2,7.367935E-3,5.6329486E-3,-1.4866744E-2,1.809159E-3,-3.0081168E-2,5.4867165E-3,-1.9680183E-2,6.609244E-3,2.0604813E-3,4.219743E-3,-2.8758427E-2,6.209599E-3,-1.2730879E-2,-1.5124492E-3,-3.783797E-2,5.050283E-3,-1.5498655E-2,7.379384E-3,-2.8127223E-2,2.2815151E-2,-9.329535E-3,-5.5111027E-3,1.2486469E-2,1.4079182E-2,-9.911929E-3,8.389149E-3,-6.8217255E-3,7.4325497E-3,-1.01074595E-2,-1.7249098E-2,9.464695E-3,8.364557E-3,-2.0739157E-2,-5.343792E-3,7.213447E-3,1.5117352E-2,-1.0204933E-3,-8.281567E-3,9.482234E-3,-1.3256095E-2,3.2926567E-3,-1.7530566E-2,-2.3908915E-3,-9.339669E-3,3.1064765E-3,7.979569E-3,-3.2094629E-3],"split_indices":[558,701,325,277,655,224,585,295,567,251,619,607,709,712,647,543,608,632,47,449,0,123,116,510,367,486,289,697,211,161,97,455,105,747,6,206,264,2,343,105,265,2,160,697,388,607,74,476,452,622,697,171,77,461,718,0,0,488,717,721,740,0,0,0,0,0,0,0,0,0,0,0,0,0,0,0,0,0,0,0,0,0,0,0,0,0,0,0,0,0,0,0,0,0,0,0,0,0,0,0,0,0,0,0,0,0,0,0,0,0,0,0,0,0,0,0,0],"split_type":[0,0,0,0,0,0,0,0,0,0,0,0,0,0,0,0,0,0,0,0,0,0,0,0,0,0,0,0,0,0,0,0,0,0,0,0,0,0,0,0,0,0,0,0,0,0,0,0,0,0,0,0,0,0,0,0,0,0,0,0,0,0,0,0,0,0,0,0,0,0,0,0,0,0,0,0,0,0,0,0,0,0,0,0,0,0,0,0,0,0,0,0,0,0,0,0,0,0,0,0,0,0,0,0,0,0,0,0,0,0,0,0,0,0,0,0,0],"sum_hessian":[3.73E3,1.617E3,2.113E3,4.06E2,1.211E3,1.285E3,8.28E2,1.07E2,2.99E2,9.18E2,2.93E2,1.018E3,2.67E2,1.41E2,6.87E2,5.4E1,5.3E1,5.6E1,2.43E2,9.15E2,3E0,3.8E1,2.55E2,8.26E2,1.92E2,6.1E1,2.06E2,1.26E2,1.5E1,1.71E2,5.16E2,1E1,4.4E1,4.5E1,8E0,1.8E1,3.8E1,4E0,2.39E2,8.84E2,3.1E1,1.9E1,1.9E1,2.4E2,1.5E1,7.63E2,6.3E1,9.1E1,1.01E2,2.8E1,3.3E1,1.7E1,1.89E2,2.8E1,9.8E1,1.1E1,4E0,1.2E2,5.1E1,2.87E2,2.29E2,4E0,6E0,3.6E1,8E0,5E0,4E1,7E0,1E0,1.3E1,5E0,3.1E1,7E0,1E0,3E0,2.35E2,4E0,7.44E2,1.4E2,2.4E1,7E0,1.8E1,1E0,7E0,1.2E1,2.31E2,9E0,6E0,9E0,4E0,7.59E2,3.9E1,2.4E1,1.1E1,8E1,8.1E1,2E1,1.7E1,1.1E1,3E1,3E0,4E0,1.3E1,2.3E1,1.66E2,1.4E1,1.4E1,8.6E1,1.2E1,1.7E1,1.03E2,2.8E1,2.3E1,3.3E1,2.54E2,2.16E2,1.3E1],"tree_param":{"num_deleted":"0","num_feature":"769","num_nodes":"117","size_leaf_vector":"1"}},{"base_weights":[-3.2739577E-4,3.0774547E-2,-2.413185E-2,3.67939E-3,3.9847944E-2,-4.6398513E-2,1.04387915E-2,-5.016359E-2,2.3050599E-2,4.8958067E-2,1.1235524E-2,-6.339823E-2,6.2050503E-3,-5.926576E-3,5.3865567E-2,1.647186E-2,-1.17104076E-1,-4.8424076E-2,3.965308E-2,-2.2268072E-2,5.2908838E-2,-9.613142E-2,2.7548317E-2,-7.795107E-2,-1.0682932E-3,-1.9907214E-2,8.064487E-2,-4.3981828E-2,2.383911E-2,5.837858E-2,-2.123298E-2,-1.259122E-1,5.0910816E-2,-1.5000042E-1,6.404438E-2,-1.7248213E-2,-3.105442E-2,-2.1572584E-1,4.4808254E-2,-3.4047507E-2,2.1629881E-2,5.4013647E-2,-2.0006177E-1,4.13082E-2,-2.2876446E-1,3.7923925E-2,-1.3045605E-1,-1.0221411E-1,-4.601093E-2,1.3873297E-2,-1.998242E-1,1.2286389E-2,-8.203348E-2,-1.9956142E-2,1.13418676E-1,-1.9020556E-2,-3.0617468E-2,-5.7705726E-2,4.2661685E-2,-2.4158802E-2,6.840386E-2,-2.6956648E-2,-5.314546E-4,6.650897E-3,-1.8963305E-2,-3.544143E-3,-1.9901244E-2,9.030957E-3,-7.3038572E-3,2.3809068E-3,-2.1605624E-2,1.7187014E-3,-2.7825082E-2,7.685923E-3,8.1061956E-4,-2.3998665E-2,5.37912E-3,5.682035E-3,-4.2901114E-3,-2.2776358E-2,-5.8478187E-3,5.6213196E-3,-1.2094337E-2,-1.380111E-3,-3.4345236E-2,4.958682E-3,-8.662007E-3,1.1576911E-3,-3.1472366E-2,-1.20259505E-2,-4.1542673E-3,-6.7915483E-3,6.241679E-3,-4.567309E-3,6.0999054E-3,-1.48776E-2,-2.7748866E-2,5.2798144E-3,-5.100711E-3,-1.0556307E-2,7.515783E-3,5.5540656E-3,-1.4958101E-2,1.1732402E-2,-6.2403553E-3,2.3055451E-3,-6.4406204E-3,1.4469897E-3,-1.2181569E-2,8.227888E-3,1.3852643E-3,5.273962E-3,-1.2682403E-2,7.4761957E-3,-1.4963478E-2],"categories":[],"categories_nodes":[],"categories_segments":[],"categories_sizes":[],"default_left":[0,0,0,0,0,0,0,0,0,0,0,0,0,0,0,0,0,0,0,0,0,0,0,0,0,0,0,0,0,0,0,0,0,0,0,0,0,0,0,0,0,0,0,0,0,0,0,0,0,0,0,0,0,0,0,0,0,0,0,0,0,0,0,0,0,0,0,0,0,0,0,0,0,0,0,0,0,0,0,0,0,0,0,0,0,0,0,0,0,0,0,0,0,0,0,0,0,0,0,0,0,0,0,0,0,0,0,0,0,0,0,0,0,0,0],"id":6,"left_children":[1,3,5,7,9,11,13,15,17,19,21,23,25,27,29,31,33,35,37,39,41,43,45,47,49,51,53,55,57,59,-1,61,63,65,67,69,-1,71,73,-1,75,77,79,81,83,85,87,89,91,93,95,97,99,101,103,-1,105,107,109,111,113,-1,-1,-1,-1,-1,-1,-1,-1,-1,-1,-1,-1,-1,-1,-1,-1,-1,-1,-1,-1,-1,-1,-1,-1,-1,-1,-1,-1,-1,-1,-1,-1,-1,-1,-1,-1,-1,-1,-1,-1,-1,-1,-1,-1,-1,-1,-1,-1,-1,-1,-1,-1,-1,-1],"loss_changes":[2.7630439E0,3.976308E-1,1.6277839E0,4.2565876E-1,3.1537306E-1,1.1503935E0,5.894855E-1,4.8367473E-1,3.579173E-1,2.5978303E-1,5.17576E-1,8.815963E-1,6.1389995E-1,6.8409115E-1,2.8510064E-1,2.76106E-1,3.3139944E-1,4.6043745E-1,3.3089787E-1,6.9182754E-1,2.542367E-1,7.203823E-1,4.2463154E-1,6.059694E-1,5.521721E-1,4.690239E-1,2.7262384E-1,5.120358E-1,5.2278745E-1,1.8700373E-1,0E0,1.8913545E-1,1.8145414E-1,2.5122595E-1,3.9000675E-2,4.2959496E-1,0E0,7.7596635E-2,2.8169775E-1,0E0,3.8312218E-1,2.3854303E-1,2.3692846E-3,5.516579E-2,4.8833382E-1,3.5435817E-1,4.223968E-1,4.843979E-1,8.165099E-1,4.8825315E-1,1.0256529E-2,4.001333E-1,3.0382562E-1,2.1381934E-1,4.989344E-2,0E0,4.4398862E-1,2.9790193E-1,3.1386828E-1,2.040585E-1,2.8844893E-1,0E0,0E0,0E0,0E0,0E0,0E0,0E0,0E0,0E0,0E0,0E0,0E0,0E0,0E0,0E0,0E0,0E0,0E0,0E0,0E0,0E0,0E0,0E0,0E0,0E0,0E0,0E0,0E0,0E0,0E0,0E0,0E0,0E0,0E0,0E0,0E0,0E0,0E0,0E0,0E0,0E0,0E0,0E0,0E0,0E0,0E0,0E0,0E0,0E0,0E0,0E0,0E0,0E0,0E0],"parents":[2147483647,0,0,1,1,2,2,3,3,4,4,5,5,6,6,7,7,8,8,9,9,10,10,11,11,12,12,13,13,14,14,15,15,16,16,17,17,18,18,19,19,20,20,21,21,22,22,23,23,24,24,25,25,26,26,27,27,28,28,29,29,31,31,32,32,33,33,34,34,35,35,37,37,38,38,40,40,41,41,42,42,43,43,44,44,45,45,46,46,47,47,48,48,49,49,50,50,51,51,52,52,53,53,54,54,56,56,57,57,58,58,59,59,60,60],"right_children":[2,4,6,8,10,12,14,16,18,20,22,24,26,28,30,32,34,36,38,40,42,44,46,48,50,52,54,56,58,60,-1,62,64,66,68,70,-1,72,74,-1,76,78,80,82,84,86,88,90,92,94,96,98,100,102,104,-1,106,108,110,112,114,-1,-1,-1,-1,-1,-1,-1,-1,-1,-1,-1,-1,-1,-1,-1,-1,-1,-1,-1,-1,-1,-1,-1,-1,-1,-1,-1,-1,-1,-1,-1,-1,-1,-1,-1,-1,-1,-1,-1,-1,-1,-1,-1,-1,-1,-1,-1,-1,-1,-1,-1,-1,-1,-1],"split_conditions":[6.5280184E-2,1.5756393E-2,3.6719245E-1,-3.0929083E-1,-7.297132E-2,6.204054E-2,3.2938063E-1,-1.567362E-1,-5.050612E-1,-1.0255892E-1,2.530592E-1,5.3861374E-1,-3.825975E-1,-4.4838423E-1,3.3510065E-1,-1.0844994E-1,8.183661E-2,3.846922E-1,-4.0696657E-1,-1.0311553E-1,1.4154297E0,-7.444182E-2,-5.7176337E-2,-2.7326012E-1,2.1016687E-1,9.068519E-2,-3.1144333E-1,-6.180773E-1,2.4694352E-1,-2.9027814E-1,-2.123298E-2,-5.418676E-1,9.897202E-2,4.6620794E-2,4.6405688E-1,2.7839638E-2,-3.105442E-2,2.7700138E-1,-8.6767524E-2,-3.4047507E-2,-8.234627E-1,2.0336664E-1,-3.0226272E-1,4.11706E-1,4.9593326E-2,8.4780043E-1,2.0032373E-1,4.6879327E-1,1.07653074E-1,3.94866E-1,3.0514926E-1,5.843259E-1,3.7628993E-2,5.42902E-1,1.5689658E-1,-1.9020556E-2,-1.568071E-1,-7.234495E-4,-8.976448E-2,2.8247002E-1,2.62674E-1,-2.6956648E-2,-5.314546E-4,6.650897E-3,-1.8963305E-2,-3.544143E-3,-1.9901244E-2,9.030957E-3,-7.3038572E-3,2.3809068E-3,-2.1605624E-2,1.7187014E-3,-2.7825082E-2,7.685923E-3,8.1061956E-4,-2.3998665E-2,5.37912E-3,5.682035E-3,-4.2901114E-3,-2.2776358E-2,-5.8478187E-3,5.6213196E-3,-1.2094337E-2,-1.380111E-3,-3.4345236E-2,4.958682E-3,-8.662007E-3,1.1576911E-3,-3.1472366E-2,-1.20259505E-2,-4.1542673E-3,-6.7915483E-3,6.241679E-3,-4.567309E-3,6.0999054E-3,-1.48776E-2,-2.7748866E-2,5.2798144E-3,-5.100711E-3,-1.0556307E-2,7.515783E-3,5.5540656E-3,-1.4958101E-2,1.1732402E-2,-6.2403553E-3,2.3055451E-3,-6.4406204E-3,1.4469897E-3,-1.2181569E-2,8.227888E-3,1.3852643E-3,5.273962E-3,-1.2682403E-2,7.4761957E-3,-1.4963478E-2],"split_indices":[558,701,325,277,655,224,191,295,567,52,619,607,455,520,386,543,608,80,47,379,251,123,116,277,197,338,77,721,266,610,0,455,135,598,6,146,0,2,329,0,117,586,0,2,160,603,185,367,72,367,65,161,738,698,46,0,261,413,503,519,253,0,0,0,0,0,0,0,0,0,0,0,0,0,0,0,0,0,0,0,0,0,0,0,0,0,0,0,0,0,0,0,0,0,0,0,0,0,0,0,0,0,0,0,0,0,0,0,0,0,0,0,0,0,0],"split_type":[0,0,0,0,0,0,0,0,0,0,0,0,0,0,0,0,0,0,0,0,0,0,0,0,0,0,0,0,0,0,0,0,0,0,0,0,0,0,0,0,0,0,0,0,0,0,0,0,0,0,0,0,0,0,0,0,0,0,0,0,0,0,0,0,0,0,0,0,0,0,0,0,0,0,0,0,0,0,0,0,0,0,0,0,0,0,0,0,0,0,0,0,0,0,0,0,0,0,0,0,0,0,0,0,0,0,0,0,0,0,0,0,0,0,0],"sum_hessian":[3.73E3,1.617E3,2.113E3,4.06E2,1.211E3,1.285E3,8.28E2,1.07E2,2.99E2,9.18E2,2.93E2,9.71E2,3.14E2,6.02E2,2.26E2,5.4E1,5.3E1,5.6E1,2.43E2,4.8E1,8.7E2,3.8E1,2.55E2,7.87E2,1.84E2,2.33E2,8.1E1,2.64E2,3.38E2,2.23E2,3E0,1E1,4.4E1,4.5E1,8E0,5.1E1,5E0,4E0,2.39E2,5E0,4.3E1,8.67E2,3E0,1.9E1,1.9E1,2.4E2,1.5E1,4.46E2,3.41E2,1.72E2,1.2E1,1.54E2,7.9E1,2E1,6.1E1,2.1E1,2.43E2,6.3E1,2.75E2,2.4E1,1.99E2,4E0,6E0,4.2E1,2E0,1.4E1,3.1E1,7E0,1E0,4.3E1,8E0,1E0,3E0,1.27E2,1.12E2,4E0,3.9E1,8.43E2,2.4E1,2E0,1E0,1.8E1,1E0,7E0,1.2E1,2.2E2,2E1,9E0,6E0,3.43E2,1.03E2,2.84E2,5.7E1,7.6E1,9.6E1,9E0,3E0,9.4E1,6E1,6.9E1,1E1,1.3E1,7E0,6E1,1E0,9.4E1,1.49E2,3E1,3.3E1,1.15E2,1.6E2,1.4E1,1E1,1.94E2,5E0],"tree_param":{"num_deleted":"0","num_feature":"769","num_nodes":"115","size_leaf_vector":"1"}},{"base_weights":[-4.0468466E-4,2.0200258E-2,-2.9539226E-2,2.7087955E-2,-2.4042869E-2,-1.1764601E-2,-7.1607314E-2,-1.6836418E-2,3.3176668E-2,1.7316147E-3,-9.453679E-2,-4.604294E-2,1.447712E-2,-7.9319015E-2,8.518058E-2,7.873157E-2,-3.4883488E-2,1.1131563E-2,4.2571764E-2,1.9064622E-2,-1.0694628E-1,2.9421866E-2,-1.3992564E-1,1.466436E-2,-6.3664906E-2,3.9208297E-2,-3.129099E-2,-8.638988E-2,5.8311276E-2,1.76597E-1,-1.3593991E-2,-7.168394E-2,9.4111875E-2,7.294483E-2,-5.4930728E-2,1.8641777E-2,-8.576734E-2,-2.2527605E-2,4.6501778E-2,-8.2066156E-2,3.4364652E-2,-1.6258658E-1,2.0592991E-2,-2.0772196E-2,7.779836E-2,-2.0418423E-3,-1.7971337E-1,5.5658158E-2,-7.4988745E-2,2.9741483E-2,-7.718501E-2,-2.1080874E-2,5.7226695E-2,-6.546433E-2,3.9902985E-2,-9.289161E-2,6.289258E-2,-9.4001986E-2,1.5206185E-1,4.4857696E-2,2.511548E-1,1.0957689E-3,-1.0288372E-2,3.581537E-3,1.1067174E-2,-1.7543212E-2,9.612366E-3,-1.8325091E-3,-1.1868517E-2,2.324961E-3,-1.2052875E-2,3.3811806E-4,-1.9741433E-2,-1.7266903E-2,3.1973857E-3,-1.1911279E-3,5.1913634E-3,3.6925059E-3,-1.947446E-2,5.6797434E-3,-7.662306E-3,2.2669097E-3,-2.0750964E-2,-6.430035E-3,3.7170069E-3,-3.3481143E-4,1.1550813E-2,5.847542E-3,-1.22668E-2,-1.2520467E-2,-2.9146804E-2,-1.0991338E-2,7.1883784E-3,-1.1771739E-2,5.6781666E-3,-1.268065E-2,7.015565E-3,-8.210677E-3,1.5461698E-2,3.7655232E-3,-1.1099647E-2,-1.0786532E-2,6.426026E-3,-1.1812717E-2,-2.1095509E-3,6.982366E-3,-1.4959551E-2,-1.22858295E-2,-5.8101444E-3,1.2743408E-2,-8.7429425E-3,-1.3292767E-2,2.8158606E-3,-3.6255287E-3,1.8646931E-2,-7.064284E-3,7.5881593E-3,3.4541555E-2,1.614123E-2],"categories":[],"categories_nodes":[],"categories_segments":[],"categories_sizes":[],"default_left":[0,0,0,0,0,0,0,0,0,0,0,0,0,0,0,0,0,0,0,0,0,0,0,0,0,0,0,0,0,0,0,0,0,0,0,0,0,0,0,0,0,0,0,0,0,0,0,0,0,0,0,0,0,0,0,0,0,0,0,0,0,0,0,0,0,0,0,0,0,0,0,0,0,0,0,0,0,0,0,0,0,0,0,0,0,0,0,0,0,0,0,0,0,0,0,0,0,0,0,0,0,0,0,0,0,0,0,0,0,0,0,0,0,0,0,0,0,0,0],"id":7,"left_children":[1,3,5,7,9,11,13,15,17,19,21,23,25,27,29,31,33,35,37,39,41,43,45,47,49,51,53,55,57,59,-1,61,63,65,67,69,71,73,75,77,79,81,83,-1,85,87,89,91,93,95,97,99,101,103,105,107,109,111,113,115,117,-1,-1,-1,-1,-1,-1,-1,-1,-1,-1,-1,-1,-1,-1,-1,-1,-1,-1,-1,-1,-1,-1,-1,-1,-1,-1,-1,-1,-1,-1,-1,-1,-1,-1,-1,-1,-1,-1,-1,-1,-1,-1,-1,-1,-1,-1,-1,-1,-1,-1,-1,-1,-1,-1,-1,-1,-1,-1],"loss_changes":[2.240374E0,6.6679806E-1,1.1551704E0,5.0656056E-1,5.3616226E-1,9.793472E-1,5.617342E-1,4.011572E-1,3.4375274E-1,4.10805E-1,4.485979E-1,5.058707E-1,6.996087E-1,4.3128324E-1,4.687156E-1,9.2343494E-2,4.2553064E-1,3.6400917E-1,2.9910278E-1,2.937133E-1,2.1623784E-1,2.6854855E-1,3.178258E-1,3.9742237E-1,4.64504E-1,4.3681848E-1,5.305593E-1,4.105804E-1,3.2844213E-1,1.4588886E-1,0E0,1.1440968E-2,2.8859258E-2,1.9533284E-1,3.828975E-1,2.997122E-1,3.5898137E-1,5.537771E-1,3.4803772E-1,3.423846E-1,4.1267312E-1,1.7947131E-1,1.6462885E-2,0E0,5.8527023E-2,1.0937257E-1,2.3762894E-1,2.0670211E-1,1.9811682E-1,3.0625373E-1,3.7777376E-1,4.9533975E-1,3.657378E-1,3.409865E-1,4.1300988E-1,4.0988016E-1,1.857776E-1,4.6539716E-2,9.747371E-2,3.0443422E-2,2.8837621E-2,0E0,0E0,0E0,0E0,0E0,0E0,0E0,0E0,0E0,0E0,0E0,0E0,0E0,0E0,0E0,0E0,0E0,0E0,0E0,0E0,0E0,0E0,0E0,0E0,0E0,0E0,0E0,0E0,0E0,0E0,0E0,0E0,0E0,0E0,0E0,0E0,0E0,0E0,0E0,0E0,0E0,0E0,0E0,0E0,0E0,0E0,0E0,0E0,0E0,0E0,0E0,0E0,0E0,0E0,0E0,0E0,0E0,0E0],"parents":[2147483647,0,0,1,1,2,2,3,3,4,4,5,5,6,6,7,7,8,8,9,9,10,10,11,11,12,12,13,13,14,14,15,15,16,16,17,17,18,18,19,19,20,20,21,21,22,22,23,23,24,24,25,25,26,26,27,27,28,28,29,29,31,31,32,32,33,33,34,34,35,35,36,36,37,37,38,38,39,39,40,40,41,41,42,42,44,44,45,45,46,46,47,47,48,48,49,49,50,50,51,51,52,52,53,53,54,54,55,55,56,56,57,57,58,58,59,59,60,60],"right_children":[2,4,6,8,10,12,14,16,18,20,22,24,26,28,30,32,34,36,38,40,42,44,46,48,50,52,54,56,58,60,-1,62,64,66,68,70,72,74,76,78,80,82,84,-1,86,88,90,92,94,96,98,100,102,104,106,108,110,112,114,116,118,-1,-1,-1,-1,-1,-1,-1,-1,-1,-1,-1,-1,-1,-1,-1,-1,-1,-1,-1,-1,-1,-1,-1,-1,-1,-1,-1,-1,-1,-1,-1,-1,-1,-1,-1,-1,-1,-1,-1,-1,-1,-1,-1,-1,-1,-1,-1,-1,-1,-1,-1,-1,-1,-1,-1,-1,-1,-1],"split_conditions":[1.5045352E-1,1.1532404E-1,1.5128174E-1,1.9187686E-1,1.1559491E-2,-2.986966E-1,6.179855E-1,-8.7162375E-2,2.6558757E-1,-7.35097E-2,-1.4275195E-1,-1.7500314E-1,-1.4491528E-3,1.5334909E-1,6.2984705E-2,-3.288408E-1,2.9631603E-1,-2.7536145E-1,-2.106083E-1,-6.694786E-1,-3.9657983E-1,-4.3541533E-1,-5.657365E-1,6.565172E-2,-1.9984232E-1,-3.4693566E-1,4.2809135E-1,5.204769E-1,-3.1353694E-1,8.978109E-2,-1.3593991E-2,-3.3946767E-1,-1.2424566E-1,-7.2281003E-1,-3.5087046E-1,7.796707E-1,-1.4577152E-1,1.8365232E-2,-3.1903288E-1,3.7491697E-1,-1.3819537E-1,7.133044E-2,-4.650339E0,-2.0772196E-2,7.425949E-2,-2.1222821E-1,6.01476E-1,-3.0572107E-1,3.0060628E-1,-5.7699047E-2,2.3339492E-1,-1.0361643E-1,-1.1593632E-1,6.134296E-2,-2.2279909E-1,1.276184E-1,3.3954658E-2,2.8750105E-2,-1.9966418E-1,-1.7051056E-1,-4.3017933E-1,1.0957689E-3,-1.0288372E-2,3.581537E-3,1.1067174E-2,-1.7543212E-2,9.612366E-3,-1.8325091E-3,-1.1868517E-2,2.324961E-3,-1.2052875E-2,3.3811806E-4,-1.9741433E-2,-1.7266903E-2,3.1973857E-3,-1.1911279E-3,5.1913634E-3,3.6925059E-3,-1.947446E-2,5.6797434E-3,-7.662306E-3,2.2669097E-3,-2.0750964E-2,-6.430035E-3,3.7170069E-3,-3.3481143E-4,1.1550813E-2,5.847542E-3,-1.22668E-2,-1.2520467E-2,-2.9146804E-2,-1.0991338E-2,7.1883784E-3,-1.1771739E-2,5.6781666E-3,-1.268065E-2,7.015565E-3,-8.210677E-3,1.5461698E-2,3.7655232E-3,-1.1099647E-2,-1.0786532E-2,6.426026E-3,-1.1812717E-2,-2.1095509E-3,6.982366E-3,-1.4959551E-2,-1.22858295E-2,-5.8101444E-3,1.2743408E-2,-8.7429425E-3,-1.3292767E-2,2.8158606E-3,-3.6255287E-3,1.8646931E-2,-7.064284E-3,7.5881593E-3,3.4541555E-2,1.614123E-2],"split_indices":[558,740,273,325,329,621,496,625,307,152,604,261,232,699,404,465,744,727,605,175,82,383,763,456,96,77,585,429,217,170,0,0,61,148,41,32,59,347,213,658,55,371,3,0,387,57,603,199,573,36,208,122,745,13,721,23,438,9,20,1,5,0,0,0,0,0,0,0,0,0,0,0,0,0,0,0,0,0,0,0,0,0,0,0,0,0,0,0,0,0,0,0,0,0,0,0,0,0,0,0,0,0,0,0,0,0,0,0,0,0,0,0,0,0,0,0,0,0,0],"split_type":[0,0,0,0,0,0,0,0,0,0,0,0,0,0,0,0,0,0,0,0,0,0,0,0,0,0,0,0,0,0,0,0,0,0,0,0,0,0,0,0,0,0,0,0,0,0,0,0,0,0,0,0,0,0,0,0,0,0,0,0,0,0,0,0,0,0,0,0,0,0,0,0,0,0,0,0,0,0,0,0,0,0,0,0,0,0,0,0,0,0,0,0,0,0,0,0,0,0,0,0,0,0,0,0,0,0,0,0,0,0,0,0,0,0,0,0,0,0,0],"sum_hessian":[3.73E3,2.185E3,1.545E3,1.891E3,2.94E2,1.087E3,4.58E2,2.3E2,1.661E3,2.16E2,7.8E1,4.71E2,6.16E2,4.37E2,2.1E1,3.6E1,1.94E2,4.97E2,1.164E3,1.87E2,2.9E1,2.1E1,5.7E1,1.06E2,3.65E2,4E2,2.16E2,4.16E2,2.1E1,1.5E1,6E0,3E0,3.3E1,3E1,1.64E2,4.62E2,3.5E1,6.6E1,1.098E3,2.4E1,1.63E2,2E1,9E0,3E0,1.8E1,1.3E1,4.4E1,7.3E1,3.3E1,4.6E1,3.19E2,9.2E1,3.08E2,1.46E2,7E1,3.99E2,1.7E1,8E0,1.3E1,6E0,9E0,1E0,2E0,8E0,2.5E1,2E0,2.8E1,1.05E2,5.9E1,4.48E2,1.4E1,2E1,1.5E1,1.7E1,4.9E1,9.3E1,1.005E3,1.2E1,1.2E1,1.36E2,2.7E1,4E0,1.6E1,1E0,8E0,6E0,1.2E1,9E0,4E0,3.1E1,1.3E1,6E0,6.7E1,2.5E1,8E0,9E0,3.7E1,3.13E2,6E0,5.6E1,3.6E1,1.2E1,2.96E2,6.6E1,8E1,6.1E1,9E0,2.13E2,1.86E2,1.2E1,5E0,6E0,2E0,2E0,1.1E1,1E0,5E0,3E0,6E0],"tree_param":{"num_deleted":"0","num_feature":"769","num_nodes":"119","size_leaf_vector":"1"}},{"base_weights":[-4.0865986E-4,-3.7407644E-2,1.2986741E-2,-9.189801E-2,-2.578526E-2,2.2984203E-2,-2.1522334E-2,-9.86181E-2,1.12700626E-1,-5.450981E-2,1.9997417E-4,2.84504E-2,-2.862862E-2,-5.2950583E-2,1.02831395E-2,-1.347167E-1,-5.8675464E-2,1.6234756E-1,-6.7767003E-3,1.7077057E-2,-6.865946E-2,2.013362E-2,-4.875866E-2,-1.4746529E-2,3.421529E-2,-5.8951903E-2,5.0607774E-2,6.072346E-2,-6.857939E-2,-7.303641E-2,2.4500236E-2,-1.4175941E-1,1.1208001E-2,-9.286639E-2,5.195972E-2,3.4557804E-3,1.8565554E-2,8.668881E-2,-6.702629E-2,-7.279801E-2,2.1076746E-1,-3.207121E-2,4.2621598E-2,-1.9574151E-3,-1.12300776E-1,-1.4023647E-1,8.927906E-5,3.6487777E-2,-8.9016415E-2,1.2323059E-2,-9.0211086E-2,-1.2140115E-2,6.5880165E-2,8.355299E-2,-1.5421572E-2,-8.479068E-2,3.711397E-2,1.1118985E-2,-2.1229936E-1,3.6521945E-2,-9.673769E-2,-1.4660254E-2,4.1101356E-3,-1.0788722E-2,1.556626E-2,1.0639669E-2,-1.3263053E-2,1.39964465E-2,-6.5824315E-3,9.646473E-3,-1.2097854E-2,-8.452096E-3,2.864337E-3,-6.821183E-3,2.9756526E-2,-8.790054E-3,2.9433423E-3,-7.72684E-3,5.738586E-3,-8.824407E-3,4.2106337E-3,6.598804E-3,-1.3646506E-2,3.0326361E-3,-1.9877553E-2,6.3953665E-4,-2.5217209E-2,2.6749482E-3,5.572489E-3,-3.5016348E-3,-2.6915714E-2,-1.234419E-2,3.577385E-3,-1.4336975E-2,-3.7356324E-3,7.873408E-3,-1.1126374E-2,9.767174E-3,-2.0693864E-3,-6.4901784E-3,-1.5977455E-2,-5.6520966E-3,1.035251E-2,6.0203513E-3,-1.2525335E-2,5.8658468E-3,-2.3290038E-2,4.0652873E-3,-2.1736601E-2,9.659409E-5,-2.3361936E-2],"categories":[],"categories_nodes":[],"categories_segments":[],"categories_sizes":[],"default_left":[0,0,0,0,0,0,0,0,0,0,0,0,0,0,0,0,0,0,0,0,0,0,0,0,0,0,0,0,0,0,0,0,0,0,0,0,0,0,0,0,0,0,0,0,0,0,0,0,0,0,0,0,0,0,0,0,0,0,0,0,0,0,0,0,0,0,0,0,0,0,0,0,0,0,0,0,0,0,0,0,0,0,0,0,0,0,0,0,0,0,0,0,0,0,0,0,0,0,0,0,0,0,0,0,0,0,0,0,0,0,0],"id":8,"left_children":[1,3,5,7,9,11,13,15,17,19,21,23,25,27,29,31,33,35,-1,37,39,41,43,45,47,49,51,53,55,57,59,61,-1,63,65,-1,-1,67,69,71,73,75,77,79,81,83,85,87,89,91,93,-1,95,97,-1,99,101,103,105,107,109,-1,-1,-1,-1,-1,-1,-1,-1,-1,-1,-1,-1,-1,-1,-1,-1,-1,-1,-1,-1,-1,-1,-1,-1,-1,-1,-1,-1,-1,-1,-1,-1,-1,-1,-1,-1,-1,-1,-1,-1,-1,-1,-1,-1,-1,-1,-1,-1,-1,-1],"loss_changes":[1.8496299E0,6.258719E-1,9.458033E-1,2.5035024E-1,6.1132413E-1,6.003319E-1,6.1629224E-1,2.3577213E-1,6.4759776E-2,3.9520204E-1,4.2160496E-1,4.7913158E-1,4.931358E-1,5.549069E-1,3.6545E-1,1.6884279E-1,3.1500834E-1,8.476764E-3,0E0,3.8635823E-1,3.9118063E-1,3.6177912E-1,3.7151143E-1,4.2262858E-1,4.7820044E-1,3.3085525E-1,1.5773624E-1,1.9934961E-1,4.7091198E-1,5.297483E-1,3.8685215E-1,8.2188725E-2,0E0,2.5197995E-1,2.1508212E-1,0E0,0E0,3.017215E-1,2.7629143E-1,3.8415146E-1,1.4137141E-1,3.2192713E-1,3.850029E-1,2.8126994E-1,2.3734075E-1,2.4565831E-1,3.2613227E-1,3.106122E-1,2.92131E-1,1.5087059E-1,2.8404218E-1,0E0,1.2944078E-1,5.3535447E-2,0E0,3.4307933E-1,2.3593223E-1,2.0166005E-1,1.08555734E-1,2.6054683E-1,3.2119775E-1,0E0,0E0,0E0,0E0,0E0,0E0,0E0,0E0,0E0,0E0,0E0,0E0,0E0,0E0,0E0,0E0,0E0,0E0,0E0,0E0,0E0,0E0,0E0,0E0,0E0,0E0,0E0,0E0,0E0,0E0,0E0,0E0,0E0,0E0,0E0,0E0,0E0,0E0,0E0,0E0,0E0,0E0,0E0,0E0,0E0,0E0,0E0,0E0,0E0,0E0],"parents":[2147483647,0,0,1,1,2,2,3,3,4,4,5,5,6,6,7,7,8,8,9,9,10,10,11,11,12,12,13,13,14,14,15,15,16,16,17,17,19,19,20,20,21,21,22,22,23,23,24,24,25,25,26,26,27,27,28,28,29,29,30,30,31,31,33,33,34,34,37,37,38,38,39,39,40,40,41,41,42,42,43,43,44,44,45,45,46,46,47,47,48,48,49,49,50,50,52,52,53,53,55,55,56,56,57,57,58,58,59,59,60,60],"right_children":[2,4,6,8,10,12,14,16,18,20,22,24,26,28,30,32,34,36,-1,38,40,42,44,46,48,50,52,54,56,58,60,62,-1,64,66,-1,-1,68,70,72,74,76,78,80,82,84,86,88,90,92,94,-1,96,98,-1,100,102,104,106,108,110,-1,-1,-1,-1,-1,-1,-1,-1,-1,-1,-1,-1,-1,-1,-1,-1,-1,-1,-1,-1,-1,-1,-1,-1,-1,-1,-1,-1,-1,-1,-1,-1,-1,-1,-1,-1,-1,-1,-1,-1,-1,-1,-1,-1,-1,-1,-1,-1,-1,-1],"split_conditions":[-2.9544097E-1,1.4680533E-1,9.086678E-2,5.2140343E-1,-2.8810222E-2,-2.3483662E-1,3.3815515E-1,-2.549836E-1,-3.632743E0,-5.4259855E-1,2.0354275E-2,-9.049608E-1,1.4701088E-1,-1.0535909E-1,-6.694786E-1,1.747754E-1,2.3065928E-1,-3.5921237E-1,-6.7767003E-3,5.166104E-1,4.8444015E-1,-2.797954E-1,-1.0313166E-1,1.9608228E-1,6.210497E-1,4.8489112E-2,1.1293912E-1,6.03633E-1,3.5939863E-1,2.324821E-1,2.20747E-1,6.2115107E-2,1.1208001E-2,1.7264923E-1,-6.1544053E-2,3.4557804E-3,1.8565554E-2,3.066898E-1,-1.6330555E-3,-3.2131715E0,-5.333607E-1,-4.0739402E-1,2.7555184E-2,2.1686196E-1,2.3145597E-1,5.798796E-2,1.4446476E-1,-2.5197506E-1,-7.1330965E-2,-1.4726724E-1,-9.025438E-2,-1.2140115E-2,1.5198025E-1,-9.159863E-2,-1.5421572E-2,1.5896079E-1,-1.7036577E-1,-5.2701116E-1,-1.7219704E-1,6.32587E-1,-3.5504615E-1,-1.4660254E-2,4.1101356E-3,-1.0788722E-2,1.556626E-2,1.0639669E-2,-1.3263053E-2,1.39964465E-2,-6.5824315E-3,9.646473E-3,-1.2097854E-2,-8.452096E-3,2.864337E-3,-6.821183E-3,2.9756526E-2,-8.790054E-3,2.9433423E-3,-7.72684E-3,5.738586E-3,-8.824407E-3,4.2106337E-3,6.598804E-3,-1.3646506E-2,3.0326361E-3,-1.9877553E-2,6.3953665E-4,-2.5217209E-2,2.6749482E-3,5.572489E-3,-3.5016348E-3,-2.6915714E-2,-1.234419E-2,3.577385E-3,-1.4336975E-2,-3.7356324E-3,7.873408E-3,-1.1126374E-2,9.767174E-3,-2.0693864E-3,-6.4901784E-3,-1.5977455E-2,-5.6520966E-3,1.035251E-2,6.0203513E-3,-1.2525335E-2,5.8658468E-3,-2.3290038E-2,4.0652873E-3,-2.1736601E-2,9.659409E-5,-2.3361936E-2],"split_indices":[114,325,740,16,224,457,252,25,3,164,595,10,541,168,175,67,491,1,0,389,368,77,601,323,266,7,585,652,524,521,419,17,0,222,243,0,0,30,530,3,5,721,231,642,188,521,213,681,559,699,131,0,62,465,0,456,536,10,2,493,365,0,0,0,0,0,0,0,0,0,0,0,0,0,0,0,0,0,0,0,0,0,0,0,0,0,0,0,0,0,0,0,0,0,0,0,0,0,0,0,0,0,0,0,0,0,0,0,0,0,0],"split_type":[0,0,0,0,0,0,0,0,0,0,0,0,0,0,0,0,0,0,0,0,0,0,0,0,0,0,0,0,0,0,0,0,0,0,0,0,0,0,0,0,0,0,0,0,0,0,0,0,0,0,0,0,0,0,0,0,0,0,0,0,0,0,0,0,0,0,0,0,0,0,0,0,0,0,0,0,0,0,0,0,0,0,0,0,0,0,0,0,0,0,0,0,0,0,0,0,0,0,0,0,0,0,0,0,0,0,0,0,0,0,0],"sum_hessian":[3.73E3,9.91E2,2.739E3,1.73E2,8.18E2,2.124E3,6.15E2,1.68E2,5E0,3.88E2,4.3E2,1.921E3,2.03E2,3.09E2,3.06E2,8.7E1,8.1E1,4E0,1E0,6.4E1,3.24E2,3.06E2,1.24E2,2.26E2,1.695E3,1.47E2,5.6E1,3.7E1,2.72E2,4.4E1,2.62E2,8.5E1,2E0,6.2E1,1.9E1,1E0,3E0,3.5E1,2.9E1,3.2E2,4E0,9.2E1,2.14E2,7.2E1,5.2E1,2.3E1,2.03E2,1.665E3,3E1,4.5E1,1.02E2,4E0,5.2E1,3.4E1,3E0,2.36E2,3.6E1,2.8E1,1.6E1,2.39E2,2.3E1,8.3E1,2E0,5.9E1,3E0,1.5E1,4E0,2.6E1,9E0,7E0,2.2E1,2.87E2,3.3E1,1E0,3E0,4.8E1,4.4E1,2.3E1,1.91E2,2.4E1,4.8E1,6E0,4.6E1,6E0,1.7E1,1.99E2,4E0,1.107E3,5.58E2,2.4E1,6E0,6E0,3.9E1,5E1,5.2E1,4.9E1,3E0,3E1,4E0,1.88E2,4.8E1,1.5E1,2.1E1,2.1E1,7E0,1E0,1.5E1,2.36E2,3E0,1.4E1,9E0],"tree_param":{"num_deleted":"0","num_feature":"769","num_nodes":"111","size_leaf_vector":"1"}},{"base_weights":[-4.1477976E-4,1.1190897E-2,-3.588733E-2,-3.637075E-2,2.0005029E-2,-1.48273725E-2,-6.998502E-2,-1.0503418E-1,-1.7916529E-2,-2.3167258E-2,2.5259491E-2,2.8961678E-3,-6.631831E-2,-7.492489E-2,1.5117778E-1,-1.2882756E-1,1.7523156E-2,-4.589206E-2,2.447756E-2,3.6625087E-2,-6.646191E-2,9.4084125E-3,4.0143035E-2,-2.8765531E-2,2.7421918E-2,-8.161069E-2,1.1124742E-1,-7.818406E-2,2.2165026E-1,-8.048537E-3,1.9577043E-1,-1.3439365E-1,5.5122557E-3,8.630138E-2,-1.1149079E-2,-7.0808835E-2,1.3371039E-2,-1.5765828E-3,1.191935E-1,1.9398764E-1,2.0522581E-2,-9.009803E-2,3.9741818E-2,1.4965002E-2,-7.576558E-2,4.1366152E-2,-1.5517488E-1,-1.1535399E-2,-1.796022E-1,-1.8377663E-1,3.2697532E-2,-1.0441103E-1,3.395669E-2,-9.037255E-3,1.6060866E-2,-1.0221482E-1,-3.739682E-2,2.5531108E-2,6.0333894E-3,2.7118748E-2,1.1136611E-2,-1.4070407E-2,1.4369864E-3,-5.743065E-3,1.0641765E-2,-9.459606E-3,1.8375948E-3,-2.3634776E-3,1.4457959E-2,7.2335E-3,-4.1590123E-3,2.2398373E-2,8.366329E-3,9.866743E-3,3.1230107E-2,-8.247073E-3,4.112215E-3,-1.1357558E-2,2.9344119E-3,-4.01118E-3,1.4955597E-2,-2.822273E-4,3.7153848E-3,7.655678E-3,-1.4839359E-2,-1.1459041E-2,4.292351E-3,2.174612E-3,-2.3029251E-2,-7.345263E-3,2.631449E-3,3.462671E-3,-2.5858587E-2,4.6069846E-3,-2.389599E-2,4.6141758E-3,-5.4031224E-3,1.373441E-2,-1.1225293E-2,7.1204314E-3,-1.143756E-2,-1.1720697E-2,-1.9397365E-3,6.8071396E-3,-7.180493E-3],"categories":[],"categories_nodes":[],"categories_segments":[],"categories_sizes":[],"default_left":[0,0,0,0,0,0,0,0,0,0,0,0,0,0,0,0,0,0,0,0,0,0,0,0,0,0,0,0,0,0,0,0,0,0,0,0,0,0,0,0,0,0,0,0,0,0,0,0,0,0,0,0,0,0,0,0,0,0,0,0,0,0,0,0,0,0,0,0,0,0,0,0,0,0,0,0,0,0,0,0,0,0,0,0,0,0,0,0,0,0,0,0,0,0,0,0,0,0,0,0,0,0,0,0,0],"id":9,"left_children":[1,3,5,7,9,11,13,15,17,19,21,23,25,27,29,31,33,35,37,39,41,43,45,47,49,51,53,55,57,-1,59,61,-1,63,-1,65,67,69,71,73,75,77,79,81,83,85,87,89,91,93,95,97,99,-1,-1,101,103,-1,-1,-1,-1,-1,-1,-1,-1,-1,-1,-1,-1,-1,-1,-1,-1,-1,-1,-1,-1,-1,-1,-1,-1,-1,-1,-1,-1,-1,-1,-1,-1,-1,-1,-1,-1,-1,-1,-1,-1,-1,-1,-1,-1,-1,-1,-1,-1],"loss_changes":[1.5363907E0,1.1795592E0,6.596105E-1,5.5565536E-1,5.388935E-1,5.203751E-1,3.9480042E-1,2.7345037E-1,4.138503E-1,6.703159E-1,4.9882972E-1,3.3081272E-1,4.0552753E-1,3.4983563E-1,9.8400444E-2,8.7270975E-2,1.5159541E-1,3.1104234E-1,3.4320414E-1,2.722174E-1,3.8011718E-1,4.86716E-1,2.670554E-1,4.8133034E-1,2.7341753E-1,3.5926718E-1,1.3394117E-1,3.3040833E-1,6.3162446E-3,0E0,1.4357567E-2,7.3367715E-2,0E0,3.791652E-2,0E0,3.1571406E-1,3.093123E-1,3.2832947E-1,9.295738E-2,8.1962645E-2,2.155531E-1,3.4825045E-1,2.5153255E-1,3.8057554E-1,7.083212E-1,2.6844287E-1,9.803717E-2,3.9565098E-1,3.304451E-1,8.711094E-2,2.7650338E-1,2.2964513E-1,1.3521962E-1,0E0,0E0,2.634313E-1,4.6939492E-1,0E0,0E0,0E0,0E0,0E0,0E0,0E0,0E0,0E0,0E0,0E0,0E0,0E0,0E0,0E0,0E0,0E0,0E0,0E0,0E0,0E0,0E0,0E0,0E0,0E0,0E0,0E0,0E0,0E0,0E0,0E0,0E0,0E0,0E0,0E0,0E0,0E0,0E0,0E0,0E0,0E0,0E0,0E0,0E0,0E0,0E0,0E0,0E0],"parents":[2147483647,0,0,1,1,2,2,3,3,4,4,5,5,6,6,7,7,8,8,9,9,10,10,11,11,12,12,13,13,14,14,15,15,16,16,17,17,18,18,19,19,20,20,21,21,22,22,23,23,24,24,25,25,26,26,27,27,28,28,30,30,31,31,33,33,35,35,36,36,37,37,38,38,39,39,40,40,41,41,42,42,43,43,44,44,45,45,46,46,47,47,48,48,49,49,50,50,51,51,52,52,55,55,56,56],"right_children":[2,4,6,8,10,12,14,16,18,20,22,24,26,28,30,32,34,36,38,40,42,44,46,48,50,52,54,56,58,-1,60,62,-1,64,-1,66,68,70,72,74,76,78,80,82,84,86,88,90,92,94,96,98,100,-1,-1,102,104,-1,-1,-1,-1,-1,-1,-1,-1,-1,-1,-1,-1,-1,-1,-1,-1,-1,-1,-1,-1,-1,-1,-1,-1,-1,-1,-1,-1,-1,-1,-1,-1,-1,-1,-1,-1,-1,-1,-1,-1,-1,-1,-1,-1,-1,-1,-1,-1],"split_conditions":[1.0226687E-1,1.9187686E-1,5.555456E-1,-6.6981405E-2,1.5205818E-1,8.850798E-2,-1.2779856E-1,4.5987954E-3,-1.6525765E-1,-8.524482E-2,8.2919694E-2,-1.1518823E-1,6.562911E-2,5.6406265E-1,-2.5920543E-1,2.60216E-1,-1.1566956E-1,-2.5910702E-1,-2.9489595E-1,9.841926E-3,5.561027E-1,3.6234338E-2,3.9361292E-1,1.2131981E-1,-2.3764339E-1,9.1094755E-2,-3.420799E-1,1.8380323E-1,-2.3405676E-1,-8.048537E-3,-2.0776474E-1,3.517843E-2,5.5122557E-3,-3.540579E-1,-1.1149079E-2,1.19748846E-1,-3.769588E-2,-6.093499E-2,3.6032313E-1,-1.0846973E-1,1.556676E-1,4.8201758E-1,5.3059775E-1,1.4685348E-1,-9.537781E-2,-3.2892412E-1,-3.4316522E-1,-3.151213E-1,-3.790973E-1,-2.4038908E-1,-2.2369172E-2,-4.380917E-1,-3.334991E-1,-9.037255E-3,1.6060866E-2,1.1513569E-1,4.3619353E-2,2.5531108E-2,6.0333894E-3,2.7118748E-2,1.1136611E-2,-1.4070407E-2,1.4369864E-3,-5.743065E-3,1.0641765E-2,-9.459606E-3,1.8375948E-3,-2.3634776E-3,1.4457959E-2,7.2335E-3,-4.1590123E-3,2.2398373E-2,8.366329E-3,9.866743E-3,3.1230107E-2,-8.247073E-3,4.112215E-3,-1.1357558E-2,2.9344119E-3,-4.01118E-3,1.4955597E-2,-2.822273E-4,3.7153848E-3,7.655678E-3,-1.4839359E-2,-1.1459041E-2,4.292351E-3,2.174612E-3,-2.3029251E-2,-7.345263E-3,2.631449E-3,3.462671E-3,-2.5858587E-2,4.6069846E-3,-2.389599E-2,4.6141758E-3,-5.4031224E-3,1.373441E-2,-1.1225293E-2,7.1204314E-3,-1.143756E-2,-1.1720697E-2,-1.9397365E-3,6.8071396E-3,-7.180493E-3],"split_indices":[740,325,161,709,729,604,194,321,417,486,510,119,193,571,1,106,742,25,721,302,445,614,229,142,124,72,44,2,0,0,1,199,0,0,0,24,645,283,466,81,314,314,79,208,190,232,5,644,43,1,595,715,150,0,0,349,18,0,0,0,0,0,0,0,0,0,0,0,0,0,0,0,0,0,0,0,0,0,0,0,0,0,0,0,0,0,0,0,0,0,0,0,0,0,0,0,0,0,0,0,0,0,0,0,0],"split_type":[0,0,0,0,0,0,0,0,0,0,0,0,0,0,0,0,0,0,0,0,0,0,0,0,0,0,0,0,0,0,0,0,0,0,0,0,0,0,0,0,0,0,0,0,0,0,0,0,0,0,0,0,0,0,0,0,0,0,0,0,0,0,0,0,0,0,0,0,0,0,0,0,0,0,0,0,0,0,0,0,0,0,0,0,0,0,0,0,0,0,0,0,0,0,0,0,0,0,0,0,0,0,0,0,0],"sum_hessian":[3.73E3,2.811E3,9.19E2,4.39E2,2.372E3,5.69E2,3.5E2,9.2E1,3.47E2,2.57E2,2.115E3,4.24E2,1.45E2,3.43E2,7E0,7.7E1,1.5E1,2.09E2,1.38E2,1.08E2,1.49E2,1.025E3,1.09E3,1.85E2,2.39E2,1.34E2,1.1E1,3.4E2,3E0,1E0,6E0,7.5E1,2E0,1E1,5E0,1.47E2,6.2E1,1.09E2,2.9E1,9E0,9.9E1,1.22E2,2.7E1,9.63E2,6.2E1,1.084E3,6E0,1.67E2,1.8E1,5E0,2.34E2,1.12E2,2.2E1,2E0,9E0,2.13E2,1.27E2,2E0,1E0,2E0,4E0,7.2E1,3E0,1E0,9E0,1.16E2,3.1E1,4.9E1,1.3E1,3.8E1,7.1E1,6E0,2.3E1,6E0,3E0,1.6E1,8.3E1,1.02E2,2E1,1.6E1,1.1E1,5.35E2,4.28E2,2E1,4.2E1,1E1,1.074E3,2E0,4E0,6.3E1,1.04E2,5E0,1.3E1,1E0,4E0,2.03E2,3.1E1,3E0,1.09E2,1.8E1,4E0,1.8E2,3.3E1,3.1E1,9.6E1],"tree_param":{"num_deleted":"0","num_feature":"769","num_nodes":"105","size_leaf_vector":"1"}},{"base_weights":[-3.630045E-4,-2.4389403E-2,1.4293463E-2,-2.4546273E-3,-4.4251554E-2,-2.6921377E-2,2.066972E-2,-2.517971E-2,2.8383788E-2,5.2704636E-2,-5.043891E-2,-8.795956E-3,-1.14988595E-1,2.4708137E-2,-3.423283E-2,-3.8425345E-2,7.173917E-2,-4.6864867E-2,4.6100564E-2,3.0569583E-2,2.7355362E-2,-1.7990636E-2,-7.025601E-2,-3.873832E-2,4.417456E-2,1.6489629E-2,-1.3507962E-1,8.326515E-3,3.7071064E-2,-9.1868326E-2,2.306834E-2,-7.645129E-2,-9.021788E-3,-2.0682886E-2,8.0817565E-2,1.6366449E-1,-8.097675E-2,-8.887559E-2,5.3220987E-2,-1.0375269E-1,6.1255865E-2,-3.4178752E-2,5.8166306E-2,5.891577E-3,-8.0437735E-2,1.7957838E-2,-7.016852E-2,2.8122127E-1,3.326949E-2,1.0208487E-2,-1.4708824E-1,1.4302653E-2,-7.3534995E-2,4.1319866E-2,-6.2556066E-2,-1.5486269E-1,-1.8454393E-2,5.4091945E-2,-6.30525E-2,-1.024528E-2,-3.0358334E-4,-4.1510696E-3,5.1788697E-3,-7.018123E-3,9.2370063E-4,3.6077828E-3,9.506942E-3,5.659774E-4,1.8542806E-2,9.769482E-3,-1.1386445E-2,-1.8497974E-2,3.8058504E-3,5.8230455E-3,-1.3599011E-2,1.971967E-3,-1.418476E-2,-7.749746E-3,7.2349743E-3,-7.7057295E-3,4.928369E-4,-1.1121816E-2,7.224293E-3,9.260394E-3,-5.5836276E-3,2.0347968E-2,-8.322199E-3,-4.900481E-3,7.808156E-3,-1.24096405E-2,-1.692586E-3,3.3615235E-2,5.8214027E-3,-1.3905554E-2,4.4905315E-3,-1.6047891E-2,4.0328773E-3,2.933796E-3,-1.6005592E-3,4.496066E-4,-2.4822185E-2,3.1447967E-3,6.7275385E-3,-2.4806845E-4,-1.491938E-2,-1.7821617E-2,8.235762E-3,-1.4240379E-2,4.9993205E-3,-5.1769535E-3,7.4516064E-3,-1.3558002E-2,1.1668716E-2],"categories":[],"categories_nodes":[],"categories_segments":[],"categories_sizes":[],"default_left":[0,0,0,0,0,0,0,0,0,0,0,0,0,0,0,0,0,0,0,0,0,0,0,0,0,0,0,0,0,0,0,0,0,0,0,0,0,0,0,0,0,0,0,0,0,0,0,0,0,0,0,0,0,0,0,0,0,0,0,0,0,0,0,0,0,0,0,0,0,0,0,0,0,0,0,0,0,0,0,0,0,0,0,0,0,0,0,0,0,0,0,0,0,0,0,0,0,0,0,0,0,0,0,0,0,0,0,0,0,0,0,0,0],"id":10,"left_children":[1,3,5,7,9,11,13,15,17,19,21,23,25,27,29,31,33,35,37,-1,39,41,43,45,47,-1,49,51,53,55,57,59,61,63,65,67,69,71,73,75,77,79,81,83,85,87,89,91,93,-1,95,97,99,101,103,105,107,109,111,-1,-1,-1,-1,-1,-1,-1,-1,-1,-1,-1,-1,-1,-1,-1,-1,-1,-1,-1,-1,-1,-1,-1,-1,-1,-1,-1,-1,-1,-1,-1,-1,-1,-1,-1,-1,-1,-1,-1,-1,-1,-1,-1,-1,-1,-1,-1,-1,-1,-1,-1,-1,-1,-1],"loss_changes":[1.3141909E0,6.159313E-1,6.0971844E-1,4.723568E-1,4.477861E-1,4.9542403E-1,4.4605863E-1,5.0085247E-1,3.834453E-1,2.8022903E-1,4.4757152E-1,4.1250148E-1,3.2030225E-1,3.7861526E-1,4.578755E-1,3.8169974E-1,4.110661E-2,4.0823832E-1,2.2770232E-1,0E0,1.9302987E-1,3.299228E-1,3.3618498E-1,2.9706734E-1,2.3363493E-1,0E0,1.5741634E-1,3.9535964E-1,4.5381808E-1,3.162439E-1,1.9043516E-1,2.8411698E-1,3.8542897E-1,8.053189E-3,2.3987949E-2,2.6460484E-2,2.9317662E-1,1.5342674E-1,2.1739298E-1,4.5130208E-2,5.7943553E-2,3.6928815E-1,1.2009972E-1,2.835042E-1,3.1890416E-1,2.4538895E-1,3.0512482E-1,2.9431313E-2,1.8871239E-1,0E0,1.2693453E-1,3.4315124E-1,7.5082093E-1,2.6000774E-1,2.2864085E-1,2.1965444E-1,2.870925E-1,1.16288304E-1,2.6350582E-1,0E0,0E0,0E0,0E0,0E0,0E0,0E0,0E0,0E0,0E0,0E0,0E0,0E0,0E0,0E0,0E0,0E0,0E0,0E0,0E0,0E0,0E0,0E0,0E0,0E0,0E0,0E0,0E0,0E0,0E0,0E0,0E0,0E0,0E0,0E0,0E0,0E0,0E0,0E0,0E0,0E0,0E0,0E0,0E0,0E0,0E0,0E0,0E0,0E0,0E0,0E0,0E0,0E0,0E0],"parents":[2147483647,0,0,1,1,2,2,3,3,4,4,5,5,6,6,7,7,8,8,9,9,10,10,11,11,12,12,13,13,14,14,15,15,16,16,17,17,18,18,20,20,21,21,22,22,23,23,24,24,26,26,27,27,28,28,29,29,30,30,31,31,32,32,33,33,34,34,35,35,36,36,37,37,38,38,39,39,40,40,41,41,42,42,43,43,44,44,45,45,46,46,47,47,48,48,50,50,51,51,52,52,53,53,54,54,55,55,56,56,57,57,58,58],"right_children":[2,4,6,8,10,12,14,16,18,20,22,24,26,28,30,32,34,36,38,-1,40,42,44,46,48,-1,50,52,54,56,58,60,62,64,66,68,70,72,74,76,78,80,82,84,86,88,90,92,94,-1,96,98,100,102,104,106,108,110,112,-1,-1,-1,-1,-1,-1,-1,-1,-1,-1,-1,-1,-1,-1,-1,-1,-1,-1,-1,-1,-1,-1,-1,-1,-1,-1,-1,-1,-1,-1,-1,-1,-1,-1,-1,-1,-1,-1,-1,-1,-1,-1,-1,-1,-1,-1,-1,-1,-1,-1,-1,-1,-1,-1],"split_conditions":[-2.4157813E-1,1.1290591E-2,1.6729882E-1,-6.9441415E-2,1.367323E-1,2.6886681E-2,1.2384619E-1,6.2372155E-2,-3.418084E-1,-2.168587E-1,-2.5140166E-1,3.3553943E-1,-2.684168E-1,-1.8091492E-1,6.907953E-3,1.4327563E-1,2.1134476E-1,-2.114993E-1,-2.9266188E-1,3.0569583E-2,-4.464322E-1,1.8814407E-2,-6.5982145E-1,-5.3495273E-2,-3.1199792E-1,1.6489629E-2,-6.0959446E-1,2.1638888E-1,1.8977016E-1,-1.8689705E-1,2.8496093E-1,-1.0272387E-2,2.4829084E-2,-4.310414E-1,-2.1373445E-1,-3.579642E-1,1.0866831E-1,-1.0731321E-1,9.392361E-2,-6.4747915E-2,1.2335419E-1,9.328013E-2,-2.1961145E-1,-2.203885E-1,-4.8775733E-1,-3.1566104E-1,-1.04886845E-1,-3.8404304E-1,-4.0422598E-1,1.0208487E-2,4.142521E-2,3.4840196E-1,2.4593759E-1,3.1605765E-1,1.4058581E-1,3.1862354E-1,-3.849012E-1,-5.093412E-1,-4.8720324E-1,-1.024528E-2,-3.0358334E-4,-4.1510696E-3,5.1788697E-3,-7.018123E-3,9.2370063E-4,3.6077828E-3,9.506942E-3,5.659774E-4,1.8542806E-2,9.769482E-3,-1.1386445E-2,-1.8497974E-2,3.8058504E-3,5.8230455E-3,-1.3599011E-2,1.971967E-3,-1.418476E-2,-7.749746E-3,7.2349743E-3,-7.7057295E-3,4.928369E-4,-1.1121816E-2,7.224293E-3,9.260394E-3,-5.5836276E-3,2.0347968E-2,-8.322199E-3,-4.900481E-3,7.808156E-3,-1.24096405E-2,-1.692586E-3,3.3615235E-2,5.8214027E-3,-1.3905554E-2,4.4905315E-3,-1.6047891E-2,4.0328773E-3,2.933796E-3,-1.6005592E-3,4.496066E-4,-2.4822185E-2,3.1447967E-3,6.7275385E-3,-2.4806845E-4,-1.491938E-2,-1.7821617E-2,8.235762E-3,-1.4240379E-2,4.9993205E-3,-5.1769535E-3,7.4516064E-3,-1.3558002E-2,1.1668716E-2],"split_indices":[114,604,729,753,299,96,411,119,77,11,152,252,620,477,72,611,279,764,88,0,681,610,318,20,267,0,83,527,456,679,151,663,121,0,243,0,686,196,384,23,90,593,643,448,348,316,546,0,152,0,659,662,76,566,91,386,476,443,512,0,0,0,0,0,0,0,0,0,0,0,0,0,0,0,0,0,0,0,0,0,0,0,0,0,0,0,0,0,0,0,0,0,0,0,0,0,0,0,0,0,0,0,0,0,0,0,0,0,0,0,0,0,0],"split_type":[0,0,0,0,0,0,0,0,0,0,0,0,0,0,0,0,0,0,0,0,0,0,0,0,0,0,0,0,0,0,0,0,0,0,0,0,0,0,0,0,0,0,0,0,0,0,0,0,0,0,0,0,0,0,0,0,0,0,0,0,0,0,0,0,0,0,0,0,0,0,0,0,0,0,0,0,0,0,0,0,0,0,0,0,0,0,0,0,0,0,0,0,0,0,0,0,0,0,0,0,0,0,0,0,0,0,0,0,0,0,0,0,0],"sum_hessian":[3.73E3,1.413E3,2.317E3,6.72E2,7.41E2,3.1E2,2.007E3,3.87E2,2.85E2,4.4E1,6.97E2,2.58E2,5.2E1,1.87E3,1.37E2,3.41E2,4.6E1,5.4E1,2.31E2,3E0,4.1E1,2.65E2,4.32E2,1.65E2,9.3E1,3E0,4.9E1,8.05E2,1.065E3,6.8E1,6.9E1,1.48E2,1.93E2,4E0,4.2E1,7E0,4.7E1,1.1E1,2.2E2,8E0,3.3E1,2.19E2,4.6E1,5.1E1,3.81E2,5.9E1,1.06E2,3E0,9E1,2E0,4.7E1,7.51E2,5.4E1,1.022E3,4.3E1,3.6E1,3.2E1,5.1E1,1.8E1,1.09E2,3.9E1,1.26E2,6.7E1,1E0,3E0,1.1E1,3.1E1,1E0,6E0,7E0,4E1,6E0,5E0,2.15E2,5E0,2E0,6E0,2E0,3.1E1,1.04E2,1.15E2,3E0,4.3E1,2.1E1,3E1,3E0,3.78E2,2.8E1,3.1E1,5.2E1,5.4E1,2E0,1E0,5E0,8.5E1,4.4E1,3E0,5.02E2,2.49E2,3.8E1,1.6E1,7.42E2,2.8E2,2.6E1,1.7E1,3.3E1,3E0,1.1E1,2.1E1,8E0,4.3E1,1.3E1,5E0],"tree_param":{"num_deleted":"0","num_feature":"769","num_nodes":"113","size_leaf_vector":"1"}},{"base_weights":[-3.2625013E-4,9.3767205E-3,-2.9983236E-2,-3.08367E-2,1.6829113E-2,-6.767408E-2,-1.6049637E-2,-6.122803E-3,-6.894356E-2,-1.592097E-2,2.1978527E-2,-1.0973613E-2,-8.860202E-2,2.8347364E-3,-4.9694266E-2,-1.175599E-1,4.8184753E-3,3.4886368E-2,-8.4302135E-2,-4.6861846E-2,3.411206E-2,2.8035177E-2,-5.61408E-3,2.741389E-2,-1.11415796E-1,-4.0210735E-2,-1.18756786E-1,2.2275705E-2,-4.0565893E-2,-9.2729285E-2,-1.5470432E-2,-1.4388107E-1,1.1464864E-2,-1.113896E-1,1.3971663E-2,8.734461E-2,-9.749598E-3,9.2236005E-2,-9.097972E-2,-8.3646365E-2,7.092053E-3,-8.5136905E-2,5.516506E-2,3.455914E-2,-1.8907418E-3,2.3964262E-2,-4.2913485E-2,-1.6625704E-2,4.3313246E-2,-1.2246244E-2,4.371187E-3,5.6798793E-2,-7.674881E-2,6.630046E-2,-1.2629445E-1,2.7908579E-2,-1.8610868E-1,-7.722296E-2,3.1239426E-2,3.6905413E-3,-1.22170575E-1,4.2999618E-2,-5.105834E-2,-1.5077493E-2,4.449636E-5,-6.955151E-4,-1.772156E-2,3.3306535E-3,-4.3273764E-3,1.1622746E-2,-5.219719E-4,1.0445924E-2,1.5559926E-3,-9.509721E-3,1.369864E-2,-1.116873E-2,3.2646657E-4,-1.0647299E-2,3.8431722E-3,5.550735E-3,-1.3933181E-2,7.0084482E-3,-9.5069865E-3,3.5650164E-3,-1.3572228E-2,5.7869367E-3,-2.2599176E-3,-1.858469E-2,3.2236886E-3,-9.9914735E-3,1.6779454E-4,6.383518E-3,-1.0755919E-2,-9.209438E-3,8.849137E-3,-9.873953E-3,7.872574E-3,1.0762296E-2,-4.9494766E-3,-1.2999124E-2,1.327826E-2,2.4162752E-3,2.9156733E-2,-1.0601568E-2,-2.3969777E-2,1.0681259E-2,-8.9449035E-3,8.627054E-3,-5.150324E-3,-1.1002766E-2,9.441907E-3,-1.3485426E-2,1.0012896E-2,-5.155604E-3,7.919266E-3,-9.557915E-3,2.9577226E-3],"categories":[],"categories_nodes":[],"categories_segments":[],"categories_sizes":[],"default_left":[0,0,0,0,0,0,0,0,0,0,0,0,0,0,0,0,0,0,0,0,0,0,0,0,0,0,0,0,0,0,0,0,0,0,0,0,0,0,0,0,0,0,0,0,0,0,0,0,0,0,0,0,0,0,0,0,0,0,0,0,0,0,0,0,0,0,0,0,0,0,0,0,0,0,0,0,0,0,0,0,0,0,0,0,0,0,0,0,0,0,0,0,0,0,0,0,0,0,0,0,0,0,0,0,0,0,0,0,0,0,0,0,0,0,0,0,0],"id":11,"left_children":[1,3,5,7,9,11,13,15,17,19,21,23,25,27,29,31,33,35,37,39,41,43,45,47,49,51,53,55,57,59,61,63,-1,65,67,69,-1,71,73,75,77,79,81,83,85,87,89,-1,91,-1,-1,93,95,97,99,101,103,105,107,109,111,113,115,-1,-1,-1,-1,-1,-1,-1,-1,-1,-1,-1,-1,-1,-1,-1,-1,-1,-1,-1,-1,-1,-1,-1,-1,-1,-1,-1,-1,-1,-1,-1,-1,-1,-1,-1,-1,-1,-1,-1,-1,-1,-1,-1,-1,-1,-1,-1,-1,-1,-1,-1,-1,-1,-1],"loss_changes":[1.0739169E0,8.432365E-1,4.8206937E-1,4.139563E-1,4.0054148E-1,2.9331052E-1,4.277366E-1,3.2732928E-1,2.7882057E-1,5.0162375E-1,3.4291804E-1,2.652436E-1,2.5934494E-1,3.654037E-1,3.5498857E-1,1.6318381E-1,2.6215652E-1,1.682403E-1,1.8639755E-1,3.9752683E-1,3.160046E-1,3.2845175E-1,4.092326E-1,1.611633E-1,3.7912235E-2,2.5602168E-1,1.6320717E-1,3.5616115E-1,3.5512346E-1,3.041945E-1,2.8518793E-1,2.1956235E-2,0E0,1.2250845E-1,2.537992E-1,4.605654E-2,0E0,3.998E-3,1.500696E-1,2.9037553E-1,2.9593736E-1,1.525558E-1,2.4425331E-1,2.6140177E-1,3.7504438E-1,3.6527872E-1,4.1701746E-1,0E0,1.523872E-1,0E0,0E0,1.0252574E-1,1.8556115E-1,2.9251516E-2,1.1974013E-1,2.8133988E-1,8.92517E-3,2.098071E-1,2.139006E-1,2.786433E-1,2.4470806E-1,1.8204017E-1,3.0797356E-1,0E0,0E0,0E0,0E0,0E0,0E0,0E0,0E0,0E0,0E0,0E0,0E0,0E0,0E0,0E0,0E0,0E0,0E0,0E0,0E0,0E0,0E0,0E0,0E0,0E0,0E0,0E0,0E0,0E0,0E0,0E0,0E0,0E0,0E0,0E0,0E0,0E0,0E0,0E0,0E0,0E0,0E0,0E0,0E0,0E0,0E0,0E0,0E0,0E0,0E0,0E0,0E0,0E0,0E0],"parents":[2147483647,0,0,1,1,2,2,3,3,4,4,5,5,6,6,7,7,8,8,9,9,10,10,11,11,12,12,13,13,14,14,15,15,16,16,17,17,18,18,19,19,20,20,21,21,22,22,23,23,24,24,25,25,26,26,27,27,28,28,29,29,30,30,31,31,33,33,34,34,35,35,37,37,38,38,39,39,40,40,41,41,42,42,43,43,44,44,45,45,46,46,48,48,51,51,52,52,53,53,54,54,55,55,56,56,57,57,58,58,59,59,60,60,61,61,62,62],"right_children":[2,4,6,8,10,12,14,16,18,20,22,24,26,28,30,32,34,36,38,40,42,44,46,48,50,52,54,56,58,60,62,64,-1,66,68,70,-1,72,74,76,78,80,82,84,86,88,90,-1,92,-1,-1,94,96,98,100,102,104,106,108,110,112,114,116,-1,-1,-1,-1,-1,-1,-1,-1,-1,-1,-1,-1,-1,-1,-1,-1,-1,-1,-1,-1,-1,-1,-1,-1,-1,-1,-1,-1,-1,-1,-1,-1,-1,-1,-1,-1,-1,-1,-1,-1,-1,-1,-1,-1,-1,-1,-1,-1,-1,-1,-1,-1,-1,-1],"split_conditions":[1.0226687E-1,1.9187686E-1,8.309203E-2,-3.749437E-2,-7.93697E-2,4.2407265E-1,1.1559491E-2,-2.0536263E-1,3.098285E-1,2.9807627E-1,-1.0397681E-1,1.1038492E-1,-1.4211868E-2,5.544408E-1,2.222475E-2,2.699565E-2,-6.5042067E-1,1.0031669E-1,-3.4057182E-1,1.1955816E-1,-4.883159E-1,3.2076183E-1,2.1547383E-1,1.0982551E-2,7.833708E-2,3.1529583E-2,-3.8230252E-1,1.4854863E-2,3.428672E-1,-1.551006E-1,-5.2951026E-1,2.887875E-1,1.1464864E-2,1.2102607E-1,4.515077E-1,3.786416E-1,-9.749598E-3,-2.4015555E-1,3.6410254E-1,-1.0189603E-1,2.0448624E-1,-3.948238E-1,7.249901E-1,5.0230736E-1,-5.772663E-1,-2.0494595E-1,5.1365685E-1,-1.6625704E-2,5.211308E-1,-1.2246244E-2,4.371187E-3,1.8992595E-2,-1.04502216E-1,-2.3405676E-1,3.7226185E-1,4.8317567E-1,3.4325925E-1,-3.2332897E-1,6.209259E-2,-1.4338227E-1,1.0438888E-1,-3.6717594E-1,-3.332442E-1,-1.5077493E-2,4.449636E-5,-6.955151E-4,-1.772156E-2,3.3306535E-3,-4.3273764E-3,1.1622746E-2,-5.219719E-4,1.0445924E-2,1.5559926E-3,-9.509721E-3,1.369864E-2,-1.116873E-2,3.2646657E-4,-1.0647299E-2,3.8431722E-3,5.550735E-3,-1.3933181E-2,7.0084482E-3,-9.5069865E-3,3.5650164E-3,-1.3572228E-2,5.7869367E-3,-2.2599176E-3,-1.858469E-2,3.2236886E-3,-9.9914735E-3,1.6779454E-4,6.383518E-3,-1.0755919E-2,-9.209438E-3,8.849137E-3,-9.873953E-3,7.872574E-3,1.0762296E-2,-4.9494766E-3,-1.2999124E-2,1.327826E-2,2.4162752E-3,2.9156733E-2,-1.0601568E-2,-2.3969777E-2,1.0681259E-2,-8.9449035E-3,8.627054E-3,-5.150324E-3,-1.1002766E-2,9.441907E-3,-1.3485426E-2,1.0012896E-2,-5.155604E-3,7.919266E-3,-9.557915E-3,2.9577226E-3],"split_indices":[740,325,474,392,84,161,329,761,744,252,205,352,147,744,586,550,549,535,655,664,288,491,698,290,0,18,504,559,252,264,331,13,0,484,418,493,0,0,63,351,103,236,230,613,27,267,636,0,190,0,0,160,687,0,20,190,6,363,160,557,370,0,148,0,0,0,0,0,0,0,0,0,0,0,0,0,0,0,0,0,0,0,0,0,0,0,0,0,0,0,0,0,0,0,0,0,0,0,0,0,0,0,0,0,0,0,0,0,0,0,0,0,0,0,0,0,0],"split_type":[0,0,0,0,0,0,0,0,0,0,0,0,0,0,0,0,0,0,0,0,0,0,0,0,0,0,0,0,0,0,0,0,0,0,0,0,0,0,0,0,0,0,0,0,0,0,0,0,0,0,0,0,0,0,0,0,0,0,0,0,0,0,0,0,0,0,0,0,0,0,0,0,0,0,0,0,0,0,0,0,0,0,0,0,0,0,0,0,0,0,0,0,0,0,0,0,0,0,0,0,0,0,0,0,0,0,0,0,0,0,0,0,0,0,0,0,0],"sum_hessian":[3.73E3,2.811E3,9.19E2,4.39E2,2.372E3,2.47E2,6.72E2,2.67E2,1.72E2,3.22E2,2.05E3,6.7E1,1.8E2,4.31E2,2.41E2,2.3E1,2.44E2,2.2E1,1.5E2,1.99E2,1.23E2,1.681E3,3.69E2,4.9E1,1.8E1,7E1,1.1E2,2.98E2,1.33E2,1.06E2,1.35E2,2.1E1,2E0,1.7E1,2.27E2,1.6E1,6E0,5E0,1.45E2,1.18E2,8.1E1,1.8E1,1.05E2,1.38E3,3.01E2,2.06E2,1.63E2,3E0,4.6E1,1.7E1,1E0,1.9E1,5.1E1,4E0,1.06E2,2.91E2,7E0,8.8E1,4.5E1,2.5E1,8.1E1,5.1E1,8.4E1,2E1,1E0,7E0,1E1,1.7E2,5.7E1,1.2E1,4E0,4E0,1E0,1.43E2,2E0,8.9E1,2.9E1,1.7E1,6.4E1,5E0,1.3E1,9.6E1,9E0,1.372E3,8E0,7.7E1,2.24E2,7E0,1.99E2,7.1E1,9.2E1,4.1E1,5E0,3E0,1.6E1,4.5E1,6E0,3E0,1E0,1.05E2,1E0,2.88E2,3E0,4E0,3E0,5E0,8.3E1,2.7E1,1.8E1,1.1E1,1.4E1,7.7E1,4E0,1.4E1,3.7E1,5.4E1,3E1],"tree_param":{"num_deleted":"0","num_feature":"769","num_nodes":"117","size_leaf_vector":"1"}},{"base_weights":[-3.1973893E-4,-2.0081306E-2,1.1735125E-2,-3.4408603E-2,3.0327335E-3,-1.7618535E-2,1.8544804E-2,4.7635306E-2,-4.0413793E-2,-2.4721984E-2,3.5070788E-2,-3.98866E-2,1.8975036E-2,-4.346869E-3,2.778324E-2,-6.6835955E-2,7.764554E-2,-4.733801E-2,3.1601556E-2,-7.198637E-3,-9.206689E-2,1.7536998E-1,2.732512E-2,-6.9115576E-3,-7.748085E-2,3.104277E-2,-1.5389238E-1,-6.441468E-2,8.726953E-3,3.794396E-2,3.0881683E-3,2.4328178E-2,-1.2685457E-2,-5.437542E-2,9.4261356E-2,-6.569681E-2,-2.0461537E-2,4.9668558E-2,-1.1914303E-1,1.9039243E-2,-5.8254775E-2,-1.2861438E-1,-6.4320574E-3,2.70899E-2,1.0281275E-1,4.182266E-2,-3.820534E-2,-6.951156E-2,2.6416693E-2,-9.8249726E-2,4.5744844E-2,4.7682535E-2,-1.0781664E-1,2.9906873E-2,-2.6319295E-2,-1.3604464E-1,-1.7975466E-2,-7.974736E-2,1.8122172E-2,4.070025E-2,-5.4270256E-2,-6.6764645E-2,1.6163051E-2,9.757728E-5,2.8803505E-3,-9.6525E-3,1.994916E-3,1.0502537E-2,-8.4267175E-3,-7.2688535E-3,2.5937718E-3,-5.0844755E-3,1.9283731E-3,6.9903582E-3,-6.861444E-3,-1.513283E-2,-1.5058165E-3,-9.28262E-3,3.642831E-3,-4.35307E-4,-1.1629732E-2,-1.1428595E-4,-1.498279E-2,-8.70626E-3,3.7479158E-3,1.1028386E-2,2.152197E-3,-4.3692086E-3,5.393853E-3,1.2976329E-2,-6.814153E-3,8.2545186E-4,-1.389427E-2,-1.0453464E-2,4.285911E-3,-1.4954996E-2,-4.882583E-3,8.550674E-3,-8.26898E-3,7.008482E-3,3.8037513E-5,-1.5150665E-2,7.2052563E-3,-3.020156E-3,8.004635E-3,-1.7532239E-2,3.316223E-3,-9.3752025E-3,4.2728726E-3,-1.8613264E-2,-9.810424E-4,-2.8301755E-3,3.369022E-3,-1.5954277E-2,4.196469E-3,-2.537907E-4,-2.4353256E-2,-1.5577212E-2,6.3488923E-4,3.156252E-3,-3.592151E-3],"categories":[],"categories_nodes":[],"categories_segments":[],"categories_sizes":[],"default_left":[0,0,0,0,0,0,0,0,0,0,0,0,0,0,0,0,0,0,0,0,0,0,0,0,0,0,0,0,0,0,0,0,0,0,0,0,0,0,0,0,0,0,0,0,0,0,0,0,0,0,0,0,0,0,0,0,0,0,0,0,0,0,0,0,0,0,0,0,0,0,0,0,0,0,0,0,0,0,0,0,0,0,0,0,0,0,0,0,0,0,0,0,0,0,0,0,0,0,0,0,0,0,0,0,0,0,0,0,0,0,0,0,0,0,0,0,0,0,0,0,0],"id":12,"left_children":[1,3,5,7,9,11,13,15,17,19,21,23,25,27,29,31,33,35,37,39,41,43,45,47,49,51,53,55,57,59,61,63,-1,65,67,69,71,73,75,77,79,81,83,-1,85,87,89,91,93,95,97,99,101,103,-1,105,107,109,111,113,115,117,119,-1,-1,-1,-1,-1,-1,-1,-1,-1,-1,-1,-1,-1,-1,-1,-1,-1,-1,-1,-1,-1,-1,-1,-1,-1,-1,-1,-1,-1,-1,-1,-1,-1,-1,-1,-1,-1,-1,-1,-1,-1,-1,-1,-1,-1,-1,-1,-1,-1,-1,-1,-1,-1,-1,-1,-1,-1,-1],"loss_changes":[8.890458E-1,4.6836692E-1,4.636694E-1,4.3204308E-1,4.828173E-1,3.568542E-1,3.981322E-1,2.1130808E-1,4.0739667E-1,3.427487E-1,2.6905915E-1,3.366553E-1,3.5107285E-1,4.2620334E-1,3.3636618E-1,7.421622E-2,1.1042005E-1,3.652668E-1,2.0200987E-1,3.1189746E-1,1.8695706E-1,6.2255323E-2,2.2960514E-1,3.0644318E-1,3.295203E-1,3.6559272E-1,2.2885424E-1,3.2021907E-1,3.7217623E-1,2.4366939E-1,3.5909957E-1,5.9895194E-4,0E0,2.0722091E-2,9.148252E-2,2.8442693E-1,3.6688E-1,1.6037124E-1,2.4521261E-2,3.029478E-1,2.4665251E-1,1.1340177E-1,7.053413E-2,0E0,3.0924603E-3,2.0646563E-1,2.3008925E-1,2.7651566E-1,2.1118331E-1,2.6906312E-1,1.0409982E-1,1.48328E-1,1.4451073E-1,1.748655E-2,0E0,2.5836456E-1,2.8000322E-1,3.1810516E-1,2.9293635E-1,2.4039483E-1,2.7352947E-1,4.0446332E-1,2.666204E-1,0E0,0E0,0E0,0E0,0E0,0E0,0E0,0E0,0E0,0E0,0E0,0E0,0E0,0E0,0E0,0E0,0E0,0E0,0E0,0E0,0E0,0E0,0E0,0E0,0E0,0E0,0E0,0E0,0E0,0E0,0E0,0E0,0E0,0E0,0E0,0E0,0E0,0E0,0E0,0E0,0E0,0E0,0E0,0E0,0E0,0E0,0E0,0E0,0E0,0E0,0E0,0E0,0E0,0E0,0E0,0E0,0E0,0E0],"parents":[2147483647,0,0,1,1,2,2,3,3,4,4,5,5,6,6,7,7,8,8,9,9,10,10,11,11,12,12,13,13,14,14,15,15,16,16,17,17,18,18,19,19,20,20,21,21,22,22,23,23,24,24,25,25,26,26,27,27,28,28,29,29,30,30,31,31,33,33,34,34,35,35,36,36,37,37,38,38,39,39,40,40,41,41,42,42,44,44,45,45,46,46,47,47,48,48,49,49,50,50,51,51,52,52,53,53,55,55,56,56,57,57,58,58,59,59,60,60,61,61,62,62],"right_children":[2,4,6,8,10,12,14,16,18,20,22,24,26,28,30,32,34,36,38,40,42,44,46,48,50,52,54,56,58,60,62,64,-1,66,68,70,72,74,76,78,80,82,84,-1,86,88,90,92,94,96,98,100,102,104,-1,106,108,110,112,114,116,118,120,-1,-1,-1,-1,-1,-1,-1,-1,-1,-1,-1,-1,-1,-1,-1,-1,-1,-1,-1,-1,-1,-1,-1,-1,-1,-1,-1,-1,-1,-1,-1,-1,-1,-1,-1,-1,-1,-1,-1,-1,-1,-1,-1,-1,-1,-1,-1,-1,-1,-1,-1,-1,-1,-1,-1,-1,-1,-1],"split_conditions":[-2.4157813E-1,4.4220346E-1,1.5868117E-1,-1.2470531E-1,-2.0659152E-1,3.617666E-2,-1.3687716E-1,-4.8059035E-2,4.8354596E-1,3.9441666E-1,-5.950183E-2,4.8486307E-2,1.0136883E-1,-6.342223E-2,-8.219201E-2,4.65912E-1,-5.1920885E-1,-3.439838E-1,4.0446985E-1,-3.5702032E-1,2.307024E-1,-1.9233424E-2,3.293591E-2,3.005819E-1,1.0143205E-1,7.282713E-1,-1.4438914E-1,1.9596933E-1,3.6204147E-1,1.9716568E-1,-7.920905E-2,-1.5291488E-1,-1.2685457E-2,1.7050543E-1,5.477836E-1,-3.0865228E-1,2.1353039E-1,2.2030175E-3,-3.5555696E0,-1.7868487E-2,-3.366098E-1,-8.269124E-2,-6.8536766E-2,2.70899E-2,1.8030815E-1,-4.109999E-1,2.7351435E-2,4.8314968E-1,-3.4144014E-1,-2.3424856E-1,3.6062878E-1,-1.8315464E-2,-1.7793313E-1,2.1212887E-2,-2.6319295E-2,-3.516692E-2,5.235021E-1,1.9214632E-1,-4.5850286E-1,-3.939497E-1,8.1659965E-2,-2.0915662E-1,5.7789225E-2,9.757728E-5,2.8803505E-3,-9.6525E-3,1.994916E-3,1.0502537E-2,-8.4267175E-3,-7.2688535E-3,2.5937718E-3,-5.0844755E-3,1.9283731E-3,6.9903582E-3,-6.861444E-3,-1.513283E-2,-1.5058165E-3,-9.28262E-3,3.642831E-3,-4.35307E-4,-1.1629732E-2,-1.1428595E-4,-1.498279E-2,-8.70626E-3,3.7479158E-3,1.1028386E-2,2.152197E-3,-4.3692086E-3,5.393853E-3,1.2976329E-2,-6.814153E-3,8.2545186E-4,-1.389427E-2,-1.0453464E-2,4.285911E-3,-1.4954996E-2,-4.882583E-3,8.550674E-3,-8.26898E-3,7.008482E-3,3.8037513E-5,-1.5150665E-2,7.2052563E-3,-3.020156E-3,8.004635E-3,-1.7532239E-2,3.316223E-3,-9.3752025E-3,4.2728726E-3,-1.8613264E-2,-9.810424E-4,-2.8301755E-3,3.369022E-3,-1.5954277E-2,4.196469E-3,-2.537907E-4,-2.4353256E-2,-1.5577212E-2,6.3488923E-4,3.156252E-3,-3.592151E-3],"split_indices":[114,367,37,456,614,72,546,294,325,422,322,147,351,701,655,389,316,373,575,569,93,26,131,317,756,744,1,330,461,169,335,2,0,2,310,455,635,116,3,741,763,49,745,0,4,288,344,32,19,482,86,360,53,2,0,311,501,228,518,88,31,349,528,0,0,0,0,0,0,0,0,0,0,0,0,0,0,0,0,0,0,0,0,0,0,0,0,0,0,0,0,0,0,0,0,0,0,0,0,0,0,0,0,0,0,0,0,0,0,0,0,0,0,0,0,0,0,0,0,0,0],"split_type":[0,0,0,0,0,0,0,0,0,0,0,0,0,0,0,0,0,0,0,0,0,0,0,0,0,0,0,0,0,0,0,0,0,0,0,0,0,0,0,0,0,0,0,0,0,0,0,0,0,0,0,0,0,0,0,0,0,0,0,0,0,0,0,0,0,0,0,0,0,0,0,0,0,0,0,0,0,0,0,0,0,0,0,0,0,0,0,0,0,0,0,0,0,0,0,0,0,0,0,0,0,0,0,0,0,0,0,0,0,0,0,0,0,0,0,0,0,0,0,0,0],"sum_hessian":[3.73E3,1.413E3,2.317E3,8.72E2,5.41E2,4.36E2,1.881E3,5.9E1,8.13E2,2.9E2,2.51E2,2.71E2,1.65E2,5.41E2,1.34E3,1.2E1,4.7E1,7.42E2,7.1E1,2.31E2,5.9E1,1.2E1,2.39E2,1.45E2,1.26E2,1.55E2,1E1,9.6E1,4.45E2,9.49E2,3.91E2,5E0,7E0,5E0,4.2E1,4.4E2,3.02E2,6.4E1,7E0,1.53E2,7.8E1,4.1E1,1.8E1,4E0,8E0,1.96E2,4.3E1,5E1,9.5E1,1.08E2,1.8E1,1.39E2,1.6E1,4E0,6E0,3.7E1,5.9E1,4.2E1,4.03E2,9.22E2,2.7E1,6.1E1,3.3E2,1E0,4E0,3E0,2E0,4E1,2E0,4.09E2,3.1E1,1.71E2,1.31E2,5.5E1,9E0,5E0,2E0,2E1,1.33E2,4.1E1,3.7E1,6E0,3.5E1,6E0,1.2E1,7E0,1E0,2.4E1,1.72E2,6E0,3.7E1,2.4E1,2.6E1,1E1,8.5E1,5.2E1,5.6E1,1.4E1,4E0,9.4E1,4.5E1,1.3E1,3E0,2E0,2E0,3E1,7E0,2.6E1,3.3E1,1.6E1,2.6E1,1.01E2,3.02E2,5E0,9.17E2,2.2E1,5E0,2.7E1,3.4E1,2.55E2,7.5E1],"tree_param":{"num_deleted":"0","num_feature":"769","num_nodes":"121","size_leaf_vector":"1"}},{"base_weights":[-3.362986E-4,7.817125E-3,-2.525705E-2,-2.5871921E-2,1.406043E-2,-5.7849362E-2,-1.3209277E-2,5.36113E-2,-3.5287756E-2,-9.543192E-3,1.989503E-2,-8.734257E-3,-7.598183E-2,2.934129E-3,-4.1972674E-2,7.266243E-2,-6.563265E-2,2.6538176E-2,-4.8036613E-2,-1.2971878E-1,-3.0839122E-3,-2.8743986E-2,2.3301428E-2,2.473585E-2,-9.6353784E-2,-3.3722367E-2,-1.02328144E-1,7.3379716E-3,-1.5181187E-1,-8.0339976E-2,-1.1478014E-2,8.882089E-2,-9.90085E-3,-9.379104E-3,3.1755567E-3,1.9289795E-1,4.2854506E-3,-6.981951E-2,-9.375584E-3,-3.498943E-2,-2.837133E-1,-8.5922725E-2,7.304621E-3,-5.5073933E-3,-1.4355819E-1,2.4233634E-2,-1.6272472E-1,-8.282495E-2,5.036688E-2,-1.0659206E-1,4.396756E-3,1.3975394E-2,-9.2290744E-2,-2.2984145E-2,-1.1743791E-1,-5.3771567E-2,2.009917E-2,-2.0489065E-2,-8.4628366E-2,3.946987E-3,-1.0608535E-1,1.04091935E-1,-2.7754774E-2,1.1694998E-3,1.0291653E-2,-4.359722E-4,9.123057E-4,8.942339E-3,2.37098E-2,4.711219E-3,-8.586498E-3,7.892927E-3,-7.6132542E-3,2.6406401E-3,-7.3232274E-3,3.666189E-3,-1.3234998E-2,-9.692399E-3,-3.232354E-2,-1.1330075E-2,7.1974443E-3,-3.5731345E-3,2.4433278E-3,4.863935E-3,-5.3754356E-3,-1.790194E-2,5.1906705E-3,2.8524718E-3,-1.4090005E-3,3.6967508E-3,-3.2987203E-2,-1.3788857E-2,3.42426E-3,-9.603473E-3,6.4452128E-3,-8.252747E-3,-1.4096665E-2,-2.6413538E-3,9.989191E-3,7.842703E-3,-1.0628616E-2,1.1008382E-2,-6.580786E-3,6.7890114E-3,-1.2436985E-2,2.6210565E-3,-9.857467E-3,-1.2199901E-3,4.782444E-3,-1.9466609E-3,-9.224422E-3,-7.7876486E-3,1.0589741E-2,-1.1735528E-2,9.094252E-3,-8.66191E-3,1.6943527E-2,6.388591E-3,-5.1330426E-3],"categories":[],"categories_nodes":[],"categories_segments":[],"categories_sizes":[],"default_left":[0,0,0,0,0,0,0,0,0,0,0,0,0,0,0,0,0,0,0,0,0,0,0,0,0,0,0,0,0,0,0,0,0,0,0,0,0,0,0,0,0,0,0,0,0,0,0,0,0,0,0,0,0,0,0,0,0,0,0,0,0,0,0,0,0,0,0,0,0,0,0,0,0,0,0,0,0,0,0,0,0,0,0,0,0,0,0,0,0,0,0,0,0,0,0,0,0,0,0,0,0,0,0,0,0,0,0,0,0,0,0,0,0,0,0,0,0,0,0],"id":13,"left_children":[1,3,5,7,9,11,13,15,17,19,21,23,25,27,29,31,33,35,37,39,41,43,45,47,49,51,53,55,57,59,61,63,-1,-1,65,67,69,71,73,75,77,79,81,83,85,87,89,91,93,95,-1,97,99,101,103,105,107,-1,109,111,113,115,117,-1,-1,-1,-1,-1,-1,-1,-1,-1,-1,-1,-1,-1,-1,-1,-1,-1,-1,-1,-1,-1,-1,-1,-1,-1,-1,-1,-1,-1,-1,-1,-1,-1,-1,-1,-1,-1,-1,-1,-1,-1,-1,-1,-1,-1,-1,-1,-1,-1,-1,-1,-1,-1,-1,-1,-1],"loss_changes":[7.5829726E-1,5.918145E-1,3.604874E-1,3.3118832E-1,3.2699403E-1,2.2019976E-1,3.1262344E-1,1.1154044E-1,3.1182942E-1,3.6521268E-1,3.159662E-1,2.0180257E-1,1.9807124E-1,2.9551208E-1,2.8221726E-1,1.2252544E-1,1.3860539E-2,2.509065E-1,2.7472818E-1,3.4018028E-1,3.8616467E-1,3.3269578E-1,3.124476E-1,1.4201634E-1,3.198293E-2,1.9963402E-1,1.3037527E-1,3.293896E-1,2.5452644E-2,2.3260868E-1,2.587192E-1,4.0107638E-2,0E0,0E0,1.7422221E-4,1.5386552E-2,2.3955706E-1,2.022717E-1,2.7383915E-1,1.1646839E-1,3.5111487E-2,2.2430038E-1,2.949952E-1,2.7691826E-1,1.5485209E-1,2.9164279E-1,3.1259668E-1,6.918329E-2,9.073588E-2,3.256172E-3,0E0,1.4144155E-1,8.479226E-2,1.15515195E-1,1.2791896E-1,2.6417542E-1,3.131131E-1,0E0,1.6781576E-3,2.251373E-1,1.9275284E-1,2.2652516E-1,2.6253796E-1,0E0,0E0,0E0,0E0,0E0,0E0,0E0,0E0,0E0,0E0,0E0,0E0,0E0,0E0,0E0,0E0,0E0,0E0,0E0,0E0,0E0,0E0,0E0,0E0,0E0,0E0,0E0,0E0,0E0,0E0,0E0,0E0,0E0,0E0,0E0,0E0,0E0,0E0,0E0,0E0,0E0,0E0,0E0,0E0,0E0,0E0,0E0,0E0,0E0,0E0,0E0,0E0,0E0,0E0,0E0,0E0],"parents":[2147483647,0,0,1,1,2,2,3,3,4,4,5,5,6,6,7,7,8,8,9,9,10,10,11,11,12,12,13,13,14,14,15,15,16,16,17,17,18,18,19,19,20,20,21,21,22,22,23,23,24,24,25,25,26,26,27,27,28,28,29,29,30,30,31,31,34,34,35,35,36,36,37,37,38,38,39,39,40,40,41,41,42,42,43,43,44,44,45,45,46,46,47,47,48,48,49,49,51,51,52,52,53,53,54,54,55,55,56,56,58,58,59,59,60,60,61,61,62,62],"right_children":[2,4,6,8,10,12,14,16,18,20,22,24,26,28,30,32,34,36,38,40,42,44,46,48,50,52,54,56,58,60,62,64,-1,-1,66,68,70,72,74,76,78,80,82,84,86,88,90,92,94,96,-1,98,100,102,104,106,108,-1,110,112,114,116,118,-1,-1,-1,-1,-1,-1,-1,-1,-1,-1,-1,-1,-1,-1,-1,-1,-1,-1,-1,-1,-1,-1,-1,-1,-1,-1,-1,-1,-1,-1,-1,-1,-1,-1,-1,-1,-1,-1,-1,-1,-1,-1,-1,-1,-1,-1,-1,-1,-1,-1,-1,-1,-1,-1,-1,-1],"split_conditions":[1.0226687E-1,1.9187686E-1,8.309203E-2,-7.474926E-2,-1.5599453E-1,4.2407265E-1,1.1559491E-2,6.2945366E-2,-4.221445E-3,1.9497399E-1,1.0280563E-1,1.1038492E-1,-1.4211868E-2,1.4854863E-2,2.222475E-2,3.2162878E-1,-3.0770946E0,-4.8510675E0,1.8715781E-1,-4.0176296E-1,-8.928943E-1,-7.616936E-2,-1.3669547E-1,2.4987575E-1,7.833708E-2,1.8240482E-1,-3.0834574E-1,-7.0488733E-1,-9.3677305E-2,-1.551006E-1,-3.210774E-1,-2.428172E-1,-9.90085E-3,-9.379104E-3,-3.0555642E-1,4.9729243E-2,-8.361801E-2,-5.590626E-1,-2.4851753E-1,-2.1052696E-1,-3.2223327E0,2.5426707E-1,-5.776761E-4,6.606493E-2,9.915995E-2,3.686997E-2,-6.3310705E-2,-8.9441545E-2,-1.4542101E-1,-2.8672323E-2,4.396756E-3,1.1383077E-1,-3.778887E-1,2.8206855E-1,2.7467853E-1,-2.0428222E-1,1.9920482E-1,-2.0489065E-2,-4.7754565E-1,1.2904766E-1,1.0438888E-1,6.637801E-2,-5.797543E-1,1.1694998E-3,1.0291653E-2,-4.359722E-4,9.123057E-4,8.942339E-3,2.37098E-2,4.711219E-3,-8.586498E-3,7.892927E-3,-7.6132542E-3,2.6406401E-3,-7.3232274E-3,3.666189E-3,-1.3234998E-2,-9.692399E-3,-3.232354E-2,-1.1330075E-2,7.1974443E-3,-3.5731345E-3,2.4433278E-3,4.863935E-3,-5.3754356E-3,-1.790194E-2,5.1906705E-3,2.8524718E-3,-1.4090005E-3,3.6967508E-3,-3.2987203E-2,-1.3788857E-2,3.42426E-3,-9.603473E-3,6.4452128E-3,-8.252747E-3,-1.4096665E-2,-2.6413538E-3,9.989191E-3,7.842703E-3,-1.0628616E-2,1.1008382E-2,-6.580786E-3,6.7890114E-3,-1.2436985E-2,2.6210565E-3,-9.857467E-3,-1.2199901E-3,4.782444E-3,-1.9466609E-3,-9.224422E-3,-7.7876486E-3,1.0589741E-2,-1.1735528E-2,9.094252E-3,-8.66191E-3,1.6943527E-2,6.388591E-3,-5.1330426E-3],"split_indices":[740,325,474,625,121,161,329,348,530,658,314,352,147,559,586,227,3,3,113,747,10,559,280,673,0,18,757,175,605,264,557,20,0,0,0,7,472,163,475,499,3,624,620,388,119,66,121,77,113,13,0,453,44,673,690,239,132,0,4,335,370,682,462,0,0,0,0,0,0,0,0,0,0,0,0,0,0,0,0,0,0,0,0,0,0,0,0,0,0,0,0,0,0,0,0,0,0,0,0,0,0,0,0,0,0,0,0,0,0,0,0,0,0,0,0,0,0,0,0],"split_type":[0,0,0,0,0,0,0,0,0,0,0,0,0,0,0,0,0,0,0,0,0,0,0,0,0,0,0,0,0,0,0,0,0,0,0,0,0,0,0,0,0,0,0,0,0,0,0,0,0,0,0,0,0,0,0,0,0,0,0,0,0,0,0,0,0,0,0,0,0,0,0,0,0,0,0,0,0,0,0,0,0,0,0,0,0,0,0,0,0,0,0,0,0,0,0,0,0,0,0,0,0,0,0,0,0,0,0,0,0,0,0,0,0,0,0,0,0,0,0],"sum_hessian":[3.73E3,2.811E3,9.19E2,4.39E2,2.372E3,2.47E2,6.72E2,4.6E1,3.93E2,4.7E2,1.902E3,6.7E1,1.8E2,4.31E2,2.41E2,4E1,6E0,6.7E1,3.26E2,2.3E1,4.47E2,1.24E2,1.778E3,4.9E1,1.8E1,7E1,1.1E2,4.2E2,1.1E1,1.06E2,1.35E2,3.7E1,3E0,4E0,2E0,7E0,6E1,2.08E2,1.18E2,1.5E1,8E0,4.9E1,3.98E2,1.04E2,2E1,1.77E3,8E0,9E0,4E1,1.7E1,1E0,3.9E1,3.1E1,1.8E1,9.2E1,7.2E1,3.48E2,5E0,6E0,2.5E1,8.1E1,1.6E1,1.19E2,6E0,3.1E1,1E0,1E0,3E0,4E0,4.1E1,1.9E1,8E0,2E2,7.6E1,4.2E1,9E0,6E0,2E0,6E0,4.2E1,7E0,1.13E2,2.85E2,4.9E1,5.5E1,1.7E1,3E0,1.592E3,1.78E2,4E0,4E0,6E0,3E0,3E0,3.7E1,1.2E1,5E0,2.7E1,1.2E1,2E0,2.9E1,4E0,1.4E1,3E0,8.9E1,2.6E1,4.6E1,1.61E2,1.87E2,1E0,5E0,1.4E1,1.1E1,7.7E1,4E0,4E0,1.2E1,2.4E1,9.5E1],"tree_param":{"num_deleted":"0","num_feature":"769","num_nodes":"119","size_leaf_vector":"1"}},{"base_weights":[-3.387619E-4,-1.1279039E-2,1.5130697E-2,-2.1330828E-2,1.2506927E-2,-7.5663604E-2,1.7716484E-2,5.9080906E-3,-3.1985234E-2,-1.0012753E-1,1.5507367E-2,-1.0894945E-1,6.2188417E-2,-7.340789E-3,2.7051073E-2,-9.679748E-3,4.7120366E-2,-7.7420495E-2,-2.2345595E-2,-2.1281675E-2,2.3686968E-2,-1.7897924E-2,2.5897225E-2,-2.174988E-1,-6.8731174E-2,-4.4341847E-2,1.22843854E-1,-9.8221764E-2,2.2325234E-3,-1.6539551E-1,2.8084645E-2,-1.4151414E-1,-2.1517733E-3,5.708263E-2,-9.8241344E-2,-4.1676063E-2,-1.1093868E-1,-3.5580803E-2,1.17603075E-2,-2.0865323E-2,8.459366E-3,-7.181166E-2,2.3685846E-2,1.4119168E-1,2.2162516E-2,-1.3986694E-2,-2.795719E-2,-9.958306E-2,1.6989935E-2,-6.0664522E-3,2.3130924E-4,4.2624306E-3,1.5229756E-2,-2.2056039E-1,-1.2570116E-2,4.4613434E-3,-2.7265653E-2,-2.2295032E-2,6.1189234E-3,3.4034576E-2,-3.4677763E-3,-1.8122157E-2,3.2840425E-3,2.625547E-3,-3.2911343E-3,-1.1329565E-2,6.6103074E-3,3.2397527E-3,-1.4718722E-2,9.274458E-3,-5.858137E-3,-1.9886198E-2,-8.323512E-3,-4.894598E-3,7.350981E-5,2.3688057E-3,-7.888499E-3,-6.9337687E-3,2.696687E-4,6.28642E-3,-1.0290378E-2,3.4772742E-3,-1.29934875E-2,1.8315716E-2,4.771727E-3,2.8890485E-3,-3.1317745E-3,-1.0736014E-2,-4.163475E-3,4.431048E-3,6.7569315E-4,-6.6551E-4,-2.9130755E-2,5.652522E-3,-9.936689E-3,2.1781984E-3,-3.3984089E-3,1.8622188E-3,4.927284E-3,-6.150408E-3,3.085793E-3],"categories":[],"categories_nodes":[],"categories_segments":[],"categories_sizes":[],"default_left":[0,0,0,0,0,0,0,0,0,0,0,0,0,0,0,0,0,0,0,0,0,0,0,0,0,0,0,0,0,0,0,0,0,0,0,0,0,0,0,0,0,0,0,0,0,0,0,0,0,0,0,0,0,0,0,0,0,0,0,0,0,0,0,0,0,0,0,0,0,0,0,0,0,0,0,0,0,0,0,0,0,0,0,0,0,0,0,0,0,0,0,0,0,0,0,0,0,0,0,0,0],"id":14,"left_children":[1,3,5,7,9,11,13,15,17,19,21,23,25,27,29,31,33,35,37,-1,39,41,43,45,47,49,51,53,55,57,59,61,63,65,67,69,71,73,75,77,-1,79,81,83,85,-1,-1,87,89,-1,-1,-1,-1,91,93,95,-1,-1,-1,97,99,-1,-1,-1,-1,-1,-1,-1,-1,-1,-1,-1,-1,-1,-1,-1,-1,-1,-1,-1,-1,-1,-1,-1,-1,-1,-1,-1,-1,-1,-1,-1,-1,-1,-1,-1,-1,-1,-1,-1,-1],"loss_changes":[6.3160574E-1,5.2292085E-1,3.6430225E-1,4.462486E-1,2.212221E-1,2.040818E-1,3.5198313E-1,2.786198E-1,4.8223734E-1,2.422345E-1,2.2050984E-1,1.3784942E-1,6.360188E-2,3.5606235E-1,2.2264785E-1,3.1231594E-1,1.7793548E-1,2.2660768E-1,4.125454E-1,0E0,2.6186869E-2,3.4023333E-1,2.0527714E-1,4.2667687E-3,7.3097676E-2,3.1864569E-3,7.684998E-3,4.0588918E-1,2.2852002E-1,9.188841E-2,2.0493662E-1,1.23645335E-1,2.6212865E-1,1.796206E-1,5.5922374E-2,2.2131315E-1,2.2459078E-1,3.1940842E-1,2.7865434E-1,7.0396196E-3,0E0,2.828346E-1,1.5099138E-1,5.0100714E-2,1.7001717E-1,0E0,0E0,4.5434535E-3,1.9371668E-3,0E0,0E0,0E0,0E0,2.4019241E-1,1.4955081E-1,2.4645716E-1,0E0,0E0,0E0,2.146821E-1,3.4852976E-1,0E0,0E0,0E0,0E0,0E0,0E0,0E0,0E0,0E0,0E0,0E0,0E0,0E0,0E0,0E0,0E0,0E0,0E0,0E0,0E0,